<?xml version="1.0"?>
<opencv_storage>
<opencv_ml_svm>
  <format>3</format>
  <svmType>C_SVC</svmType>
  <kernel>
    <type>LINEAR</type></kernel>
  <C>1.</C>
  <term_criteria><iterations>100</iterations></term_criteria>
  <var_count>784</var_count>
  <class_count>11</class_count>
  <class_labels type_id="opencv-matrix">
    <rows>11</rows>
    <cols>1</cols>
    <dt>i</dt>
    <data>
      0 1 2 3 4 5 6 7 8 9 10</data></class_labels>
  <sv_total>55</sv_total>
  <support_vectors>
    <_>
      0. 0. 0. 0. 0. 0. 1.13253463e-05 -1.48005870e-06 4.72011749e-07
      4.72011749e-07 4.72011749e-07 4.72011749e-07 1.32774167e-05
      1.32774167e-05 -2.26522980e-06 -1.30212957e-05 -1.30212957e-05
      -1.30212957e-05 -1.49733669e-05 -1.56368187e-05 -1.56368187e-05
      -1.56368187e-05 -2.69621651e-05 -2.62987123e-05 -1.55426460e-05
      -1.39970089e-05 -1.39970089e-05 -1.39970089e-05 0. 0. 0.
      6.92058450e-07 -1.21133471e-05 -1.01612759e-05 4.53647499e-06
      4.53647499e-06 4.53647499e-06 4.53647499e-06 4.53647499e-06
      4.53647499e-06 4.53647499e-06 2.99083695e-06 1.79923359e-06
      -8.95683297e-06 -8.95683297e-06 -8.95683297e-06 -9.62028480e-06
      -1.36847484e-05 -1.36847484e-05 -1.36847484e-05 -2.69621651e-05
      -2.69621651e-05 -1.55426460e-05 -1.39970089e-05 -1.39970089e-05
      -1.39970089e-05 0. 0. 7.37755863e-06 1.87029054e-05 7.84957047e-06
      1.37225843e-05 1.37225843e-05 1.37225843e-05 -2.74424536e-07
      -1.10304909e-05 -1.10304909e-05 -1.25761289e-05 -1.83488955e-05
      -2.53030230e-05 -2.59664757e-05 -1.31610705e-05 -1.98465714e-05
      -1.03314733e-05 -1.03314733e-05 -1.03314733e-05 -1.10235314e-05
      -1.10235314e-05 -1.43959360e-05 -2.00903396e-05 -4.88075239e-06
      -1.39970089e-05 -1.39970089e-05 -1.39970089e-05 0. -5.42784665e-06
      8.39810855e-06 8.39810855e-06 1.37225843e-05 3.13281430e-06
      3.13281430e-06 -1.08641943e-05 -2.31658996e-05 -2.31658996e-05
      -2.96021171e-05 -1.90123465e-05 -1.90123465e-05 -1.39507692e-05
      -1.39507692e-05 -8.93956440e-06 -6.24901395e-06 -8.74962279e-06
      -1.54351237e-05 -1.54351237e-05 -1.54351237e-05 -1.61271819e-05
      -1.94995864e-05 -1.56788901e-05 1.03090024e-05 1.18546404e-05
      5.29294368e-07 -1.39970089e-05 -5.42784665e-06 -2.92723780e-06
      8.39810855e-06 2.24471514e-05 2.24471514e-05 2.24471514e-05
      8.45014347e-06 1.35693044e-05 -9.21419826e-07 -8.04969659e-06
      -4.86668739e-07 -3.05570720e-05 -2.50709527e-05 -2.50709527e-05
      -2.43788945e-05 -2.43788945e-05 -1.40391467e-05 2.13866315e-06
      4.09073346e-06 -1.88489121e-05 -1.88489121e-05 -1.88489121e-05
      -2.40124950e-06 -1.28950683e-06 9.89268392e-06 2.21943883e-05
      5.29294368e-07 -8.98580311e-06 -1.35170076e-05 1.65533966e-05
      2.91119504e-05 1.51149425e-05 1.51149425e-05 1.51149425e-05
      7.13308691e-06 6.04680190e-06 -5.97060307e-06 -5.97060307e-06
      -6.57036026e-06 -1.55915529e-06 -1.55915529e-06 9.03061482e-06
      -3.41012674e-05 -3.04263194e-05 -3.04263194e-05 -1.76209142e-05
      -1.42485096e-05 -7.65659297e-06 -1.88489121e-05 -1.88489121e-05
      -1.88489121e-05 1.07774185e-05 9.89268392e-06 1.14383220e-05
      1.08690419e-05 -8.98580311e-06 5.79732978e-06 1.24621292e-05
      2.91119504e-05 1.44514906e-05 9.99797066e-06 2.67956671e-06
      1.13712767e-05 -1.26561035e-05 -1.26561035e-05 -1.32558607e-05
      -8.24465587e-06 -8.24465587e-06 -1.16584451e-05 -2.40273803e-05
      -5.20647245e-06 -1.47215706e-05 -4.63376127e-05 -5.23103517e-05
      -3.95049465e-05 -3.41804734e-05 -4.28721833e-05 -2.45323481e-05
      -3.05543945e-05 1.14556979e-05 9.89268392e-06 1.14383220e-05
      1.08690419e-05 1.08690419e-05 1.24621292e-05 1.44141995e-05
      2.91119504e-05 2.57543725e-05 1.29169157e-05 1.13712767e-05
      -7.33162824e-06 -2.52715672e-05 -1.07452643e-05 -9.19962622e-06
      -9.19962622e-06 -1.26134155e-05 -2.22882245e-05 -2.60305569e-05
      -3.12352786e-05 -1.97327754e-05 -2.12784125e-05 -2.12784125e-05
      -5.06567594e-05 -3.91916765e-05 -3.91916765e-05 -3.91916765e-05
      -1.51771847e-05 2.01474086e-05 1.05847421e-05 1.14383220e-05
      2.21943883e-05 1.08690419e-05 2.52675345e-05 3.59113146e-05
      4.79149421e-05 2.86733175e-05 2.69139236e-05 4.28211888e-06
      2.04442244e-06 -1.83581960e-05 -1.89854181e-05 -1.81782925e-05
      -1.81782925e-05 -2.16247736e-05 -3.47222667e-05 -3.97334734e-05
      -3.97334734e-05 -3.99269884e-05 -3.16181613e-05 -3.16181613e-05
      -3.09261013e-05 -5.56720297e-05 -4.95314271e-05 -3.94165691e-05
      -1.33531088e-07 2.68329077e-05 1.92764528e-05 1.14383220e-05
      2.21943883e-05 1.26792902e-05 3.79965422e-05 5.06090655e-05
      4.79149421e-05 4.21421755e-05 4.21421755e-05 8.33303784e-06
      1.11078716e-05 -2.36090837e-05 -2.19610465e-05 -2.19610465e-05
      -1.18461921e-05 -2.13612893e-05 -9.77094805e-06 -1.98858033e-05
      -2.35607513e-05 -5.10079517e-05 -5.75851409e-05 -4.03098711e-05
      -3.09261013e-05 -2.56016265e-05 -4.28666244e-05 -2.92380209e-05
      -1.33531088e-07 2.93335161e-05 2.59619537e-05 2.08220918e-05
      2.21943883e-05 1.26792902e-05 3.13317432e-05 6.11988362e-05
      4.79149421e-05 4.79149421e-05 5.16572727e-05 1.69035793e-05
      2.76367027e-05 -1.07687274e-05 -2.19610465e-05 -1.18461921e-05
      -2.13612893e-05 -2.63724942e-05 -5.01811010e-05 -6.02959553e-05
      -3.02255503e-05 -3.70109447e-05 -5.67807183e-05 -5.75851409e-05
      -4.03098711e-05 -2.62936865e-05 -1.21327703e-05 -3.80847905e-06
      -1.33531088e-07 2.35607513e-05 2.59619537e-05 2.08220918e-05
      3.15781581e-05 7.66808535e-06 1.20174045e-05 5.86046044e-05
      7.19549062e-05 8.14700034e-05 8.14700034e-05 4.90333878e-05
      4.83413278e-05 2.32861967e-05 1.24418659e-06 -7.60775310e-06
      -1.26189580e-05 -2.36221567e-05 -4.74905501e-05 -5.81230925e-05
      -6.02959553e-05 -4.36757437e-05 -5.67807183e-05 -6.00857493e-05
      -5.75851409e-05 -2.56302337e-05 1.34565198e-05 2.62619251e-05
      6.53126835e-06 2.35607513e-05 2.60622000e-05 3.08799972e-05
      2.13710009e-05 7.66808535e-06 1.20174045e-05 5.61039960e-05
      7.19549062e-05 8.14700034e-05 7.62851341e-05 4.90333878e-05
      5.86810747e-05 5.84184272e-05 2.38560842e-05 1.03397479e-05
      -6.63452170e-07 -1.12532216e-05 -3.51216149e-05 -5.81230925e-05
      -5.81230925e-05 -7.37461451e-05 -6.49911526e-05 -6.00857493e-05
      -6.00857493e-05 -2.32755501e-05 1.34565198e-05 2.62619251e-05
      3.66016720e-05 3.02255503e-05 2.60622000e-05 3.33806056e-05
      1.63597961e-05 7.66808535e-06 2.07091161e-05 2.60335910e-05
      5.61039960e-05 7.62851341e-05 7.62851341e-05 7.31266700e-05
      7.24346100e-05 5.84184272e-05 6.12722652e-05 1.88624035e-05
      -6.63452170e-07 -2.45318442e-05 -3.51216149e-05 -3.51216149e-05
      -5.81230925e-05 -7.15732822e-05 -9.50615577e-05 -6.67505519e-05
      -4.99708949e-05 -4.51080859e-06 2.86674981e-06 2.37962668e-05
      3.66016720e-05 6.02959553e-05 3.27269991e-05 1.88543017e-05
      1.70518542e-05 -2.67166206e-06 2.07091161e-05 2.26611864e-05
      3.55486882e-05 7.97957036e-05 9.68209570e-05 8.54956088e-05
      8.48035488e-05 6.12722652e-05 6.12722652e-05 5.55976076e-05
      -5.23088011e-06 -2.45318442e-05 -3.51216149e-05 -3.51216149e-05
      -4.53176872e-05 -7.15732822e-05 -9.50615577e-05 -8.60426444e-05
      -4.22187040e-05 -7.01141744e-06 -3.81875043e-06 1.32064970e-05
      2.37962668e-05 6.02959553e-05 2.32119019e-05 2.21466962e-05
      2.62379635e-05 -2.67166206e-06 2.07091161e-05 2.26611864e-05
      4.05598948e-05 5.08996418e-05 9.68209570e-05 8.54956088e-05
      8.54956088e-05 6.99639786e-05 5.62610585e-05 4.52578606e-05
      3.15043217e-05 -1.78463433e-05 -2.45318442e-05 -3.51216149e-05
      -4.53176872e-05 -7.15732822e-05 -9.50615577e-05 -7.22891127e-05
      -5.77628052e-05 -1.36762173e-05 4.02038859e-06 1.32064970e-05
      1.32064970e-05 3.79754529e-05 4.48986975e-05 2.21466962e-05
      1.58982166e-05 -2.67166206e-06 2.07091161e-05 3.21762818e-05
      4.05598948e-05 5.08996418e-05 5.08996418e-05 8.54956088e-05
      8.54956088e-05 6.49527719e-05 5.62610585e-05 3.51430062e-05
      2.13894691e-05 2.13894691e-05 -1.78463433e-05 -2.45318442e-05
      -3.47279201e-05 -5.87678805e-05 -8.49467033e-05 -6.27740083e-05
      -5.77628052e-05 -3.33646949e-06 4.02038859e-06 1.32064970e-05
      3.69139957e-06 3.29642462e-05 3.20932922e-05 3.31856427e-05
      1.38713049e-05 6.51444680e-06 3.02242133e-05 3.52354182e-05
      5.08996418e-05 5.08996418e-05 5.08996418e-05 5.08996418e-05
      7.59805116e-05 6.49527719e-05 4.38347161e-05 2.13894691e-05
      2.13894691e-05 2.13894691e-05 2.13894691e-05 -1.53457349e-05
      -3.47279201e-05 -3.80632555e-05 -3.95175011e-05 -4.90710954e-05
      -4.90710954e-05 -3.34068718e-05 -2.64441110e-06 3.69139957e-06
      -1.31980539e-06 2.23744773e-05 3.20932922e-05 2.03802374e-05
      1.38713049e-05 6.51444680e-06 3.02242133e-05 3.52354182e-05
      4.75272354e-05 5.08996418e-05 5.08996418e-05 5.08996418e-05
      2.50479916e-05 5.92740471e-05 4.38347161e-05 3.00811789e-05
      2.13894691e-05 2.13894691e-05 2.13894691e-05 2.13894691e-05
      -2.55418090e-05 -1.44601581e-05 -2.53201888e-05 -3.98849879e-05
      -2.42207643e-05 -2.42207643e-05 -2.97339989e-06 -1.31980539e-06
      -1.31980539e-06 2.23744773e-05 2.17535435e-05 2.03802374e-05
      3.11363037e-05 1.31792467e-05 2.65437084e-05 3.68834553e-05
      3.88355256e-05 4.75272354e-05 5.08996418e-05 5.08996418e-05
      2.43845388e-05 1.40447919e-05 3.54056538e-05 3.34535835e-05
      3.00811789e-05 3.00811789e-05 3.00811789e-05 3.95962779e-05
      3.00636548e-05 4.54930596e-05 1.00746911e-05 5.84963936e-06
      5.84963936e-06 -3.66545851e-06 -2.97339989e-06 -1.31980539e-06
      -1.31980539e-06 1.20347295e-05 1.11637737e-05 2.03802374e-05
      3.11363037e-05 4.32496490e-05 1.45263029e-05 3.68834553e-05
      3.68834553e-05 3.88355256e-05 4.22079320e-05 4.22079320e-05
      4.15444774e-05 1.34450347e-05 -1.00056036e-06 3.82352518e-05
      4.29686806e-05 3.95962779e-05 4.46074810e-05 5.47223353e-05
      5.89432493e-05 5.08175326e-05 3.76690077e-05 2.53198450e-05
      1.58047460e-05 2.99934118e-06 -1.00115158e-05 -2.03512627e-05
      1.17015759e-06 -1.98145653e-06 2.47206367e-06 9.79046763e-06
      2.05465331e-05 2.37587446e-05 2.48660508e-05 2.55581090e-05
      3.68834553e-05 3.68834553e-05 3.88355256e-05 4.22079320e-05
      4.15444774e-05 1.76760859e-05 -4.68106600e-06 -4.68106600e-06
      3.20541367e-05 3.45547451e-05 3.45547451e-05 5.13551022e-05
      6.59157668e-05 6.32216397e-05 2.89772979e-05 1.77028051e-05
      2.10183089e-06 2.10183089e-06 -2.03512627e-05 -9.02591728e-06
      -4.15431759e-06 -1.98145653e-06 -4.21343657e-06 6.04358604e-07
      1.13604247e-05 1.06683665e-05 1.53509518e-05 2.48660508e-05
      3.68834553e-05 3.68834553e-05 3.68834553e-05 3.62200044e-05
      1.43036823e-05 1.76760859e-05 1.76760859e-05 5.65868186e-06
      5.65868186e-06 5.65868186e-06 4.23938836e-05 6.69257279e-05
      5.67296556e-05 4.70210398e-05 3.75297750e-05 6.00610065e-06
      6.00610065e-06 -6.39221935e-06 -1.82120257e-05 -2.35365005e-05
      -1.33404264e-05 -1.11675654e-05 -6.71404541e-06 6.04358604e-07
      1.06683665e-05 -3.73921830e-05 1.53509518e-05 1.53509518e-05
      3.61913953e-05 3.68834553e-05 3.62200044e-05 2.61051482e-05
      1.23516111e-05 1.23516111e-05 1.23516111e-05 1.23516111e-05
      1.16595529e-05 1.23230047e-05 2.24378600e-05 3.61913953e-05
      2.31450249e-05 2.04508979e-05 3.75644704e-05 2.35033713e-05
      1.01984215e-05 -1.41326183e-07 -1.07310962e-05 -2.35365005e-05
      -1.33404264e-05 -1.11675654e-05 -3.67844477e-05 -3.01581040e-05
      -3.73921830e-05 -2.45867777e-05 0. 1.03397479e-05 2.16650933e-05
      2.16937005e-05 1.65900510e-05 2.83651366e-06 2.83651366e-06
      2.83651366e-06 2.83651366e-06 2.83651366e-06 2.83651366e-06
      1.36148210e-05 2.23571533e-05 2.23571533e-05 1.21610783e-05
      1.21610783e-05 1.52132509e-06 -2.28795216e-05 -2.28795216e-05
      -3.68765286e-05 -3.68765286e-05 -4.74662993e-05 -3.72702234e-05
      -3.50973642e-05 -3.06438451e-05 -2.40174977e-05 -2.45867777e-05
      -2.45867777e-05 0. 0. 1.03397479e-05 2.10016424e-05
      -2.17469142e-06 -2.17469142e-06 -2.17469142e-06 -2.17469142e-06
      -2.17469142e-06 -2.17469142e-06 7.94016341e-06 2.23571533e-05
      2.23571533e-05 1.20174045e-05 1.82133044e-06 1.82133044e-06
      -6.12429676e-06 -2.13338826e-05 -2.28795216e-05 -2.28795216e-05
      -3.68765286e-05 -3.68765286e-05 -2.66804545e-05 -2.45075935e-05
      -1.34277279e-05 -2.47530752e-05 -1.39970089e-05 -1.39970089e-05 0.
      0. -6.63452170e-07 -6.63452170e-07 -2.45318442e-05 -2.38397861e-05
      -2.38397861e-05 -1.25144388e-05 -1.25144388e-05 -2.39958399e-06
      1.20174045e-05 1.20174045e-05 1.20174045e-05 1.20174045e-05
      1.20174045e-05 1.82133044e-06 -3.95143525e-06 -1.64668963e-05
      -1.64668963e-05 -1.64668963e-05 -1.64668963e-05 -6.27082136e-06
      -6.27082136e-06 -1.25154602e-05 -1.07560663e-05 -1.07560663e-05 0.
      0. 0. 0. -6.63452170e-07 -6.63452170e-07 -6.63452170e-07
      -1.44169890e-05 -1.44169890e-05 -1.44169890e-05 -3.09164238e-06
      1.13253463e-05 1.20174045e-05 1.20174045e-05 1.20174045e-05
      1.20174045e-05 1.20174045e-05 1.20174045e-05 -3.95143525e-06
      -1.64668963e-05 -1.64668963e-05 -1.64668963e-05 -6.96287998e-06
      -6.96287998e-06 -1.82882268e-05 -1.25154602e-05 -1.07560663e-05
      -1.07560663e-05 0. 0.</_>
    <_>
      0. 0. 0. 7.16942168e-06 7.16942168e-06 -2.64536775e-05
      -1.49321904e-05 -1.49321904e-05 -9.39883921e-06 -9.39883921e-06
      2.19578737e-06 -2.07795392e-06 -2.07795392e-06 -2.07795392e-06
      -2.07795392e-06 -9.39883921e-06 -9.39883921e-06 -9.39883921e-06
      -1.49321904e-05 -2.21016126e-05 1.15214880e-05 1.15214880e-05 0.
      0. 0. 0. 0. 0. 0. 0. 7.16942168e-06 2.89568038e-06 -3.07274204e-05
      -1.35994414e-05 -2.07795392e-06 -2.07795392e-06 -2.07795392e-06
      -2.07795392e-06 -2.07795392e-06 -2.07795392e-06 -2.07795392e-06
      -3.95861616e-06 -8.13447332e-06 -8.13447332e-06 -8.13447332e-06
      -3.95861616e-06 -2.07795392e-06 -2.07795392e-06 -2.07795392e-06
      1.70548392e-05 0. 0. 0. 0. 0. 0. -3.36230987e-05 -2.64536775e-05
      -1.95128541e-05 -7.99136706e-06 9.13661006e-06 9.13661006e-06
      8.22877337e-06 8.22877337e-06 8.22877337e-06 8.22877337e-06
      8.22877337e-06 4.65926223e-06 2.77859999e-06 -1.39725717e-06
      2.56899034e-06 -1.01355899e-05 -2.13501553e-05 4.21033292e-06
      1.19557008e-05 1.38363630e-05 1.47442006e-05 1.90179417e-05
      2.53893660e-07 -3.08399431e-05 -3.08399431e-05 -8.73833324e-06 0.
      0. -2.64536775e-05 -1.95128541e-05 -7.99136706e-06 -3.70372732e-06
      1.82962378e-06 1.82962378e-06 -5.10385370e-08 -1.18232001e-05
      1.76240428e-05 1.76240428e-05 1.76240428e-05 1.80207790e-05
      1.24856206e-05 3.80461061e-05 3.80461061e-05 3.96709693e-05
      4.42737073e-05 1.06506095e-05 -5.63955268e-07 3.00555598e-06
      3.00555598e-06 3.00555598e-06 -8.58907060e-06 -9.80899949e-06
      -5.53525842e-06 -3.65459596e-06 1.84470155e-05 3.96624773e-06
      -1.52391131e-05 -1.52391131e-05 -9.49335390e-06 5.82113728e-07
      5.82113728e-07 -1.07866053e-05 -1.98366888e-05 2.83294230e-05
      4.42148212e-06 8.38772939e-06 2.84148664e-05 -7.73344436e-06
      2.38529037e-06 2.38529037e-06 9.57815246e-06 2.11727784e-05
      4.36581067e-05 4.36581067e-05 1.55683592e-05 1.44229525e-05
      1.44229525e-05 1.44229525e-05 1.79924646e-05 5.46722640e-06
      5.60479111e-06 1.40543898e-05 1.84470155e-05 -7.11347138e-06
      9.89011369e-06 1.71364754e-05 5.23177368e-05 4.08511332e-05
      3.66752793e-05 3.31057672e-05 2.40556819e-05 1.37378802e-05
      -1.16475840e-05 -2.32422117e-05 2.31827653e-06 -8.76144259e-06
      -4.58558543e-06 -4.58558543e-06 -3.73010789e-06 1.05146291e-05
      1.35081946e-05 2.08290785e-05 2.80219410e-05 2.81384982e-05
      1.44229525e-05 1.44229525e-05 1.44229525e-05 1.44229525e-05
      -1.70219550e-06 -1.70219550e-06 3.61560014e-05 -7.11347138e-06
      1.71364754e-05 3.09752613e-05 3.46016386e-05 2.45324809e-05
      1.33590302e-05 1.33590302e-05 5.31991191e-06 -3.45441185e-05
      -2.86972081e-05 1.46601917e-06 3.09088068e-06 -9.61370006e-06
      1.77213169e-05 1.37550687e-05 3.76742137e-05 1.21137264e-05
      -3.58961188e-06 -1.83362317e-05 -4.17843694e-07 -2.13147305e-05
      -3.06055081e-05 -2.26186557e-06 -1.34764305e-05 -1.34764305e-05
      -2.05352499e-05 -1.70219550e-06 2.13072544e-05 3.16375153e-05
      4.40718723e-05 3.04904061e-05 2.57071388e-05 2.57071388e-05
      1.89727361e-05 1.36505660e-05 -7.76103479e-06 -2.09227655e-05
      6.26258361e-06 6.26258361e-06 9.83209520e-06 3.51728850e-05
      3.12066368e-05 5.64615084e-06 4.02128899e-06 1.52358534e-05
      5.16669525e-06 1.59718411e-06 -3.02925491e-05 -3.88827066e-05
      -3.80889942e-05 -5.26742369e-05 -6.57306919e-06 -1.77876336e-05
      -3.06044094e-05 -1.99436054e-05 3.19209030e-05 2.97568513e-05
      4.40718723e-05 3.99952442e-05 3.52119750e-05 3.52119750e-05
      2.21444388e-05 1.06229509e-05 7.41977738e-06 -7.57619955e-06
      -4.14811757e-06 4.10171233e-05 5.10862810e-05 6.49250651e-05
      3.43873653e-05 2.42686292e-05 2.42686292e-05 2.42686292e-05
      -4.80460512e-05 -5.23197923e-05 -4.87198849e-05 -5.31274418e-05
      -7.75760855e-05 -7.22638797e-05 -2.15226391e-05 -6.57306919e-06
      -3.49156107e-05 -3.77738288e-05 2.15227465e-05 2.33387382e-05
      4.43787940e-05 7.37323062e-05 7.03042242e-05 7.03042242e-05
      6.67347122e-05 5.52132224e-05 6.76007694e-05 2.85930510e-05
      5.07412442e-05 5.07412442e-05 4.67749960e-05 -1.24085900e-05
      -2.18434889e-06 -1.06782218e-05 -1.64290868e-05 -2.36219494e-05
      -2.78956904e-05 -2.01092080e-05 -4.58201466e-05 -6.03820699e-05
      -7.22311743e-05 -4.99300113e-05 -2.15226391e-05 -1.00011512e-05
      9.92205241e-06 2.98122950e-06 3.69252280e-06 2.04811499e-06
      3.05400135e-05 7.37323062e-05 7.37323062e-05 7.76985544e-05
      1.03259037e-04 8.81680389e-05 7.45983634e-05 5.17522094e-05
      5.07412442e-05 5.07412442e-05 2.12145096e-05 -1.40334514e-05
      -3.36230987e-05 -4.21169716e-05 -3.45416120e-05 -2.07028279e-05
      -2.78956904e-05 -4.06002691e-05 -5.01736868e-05 -6.22627340e-05
      -6.22627340e-05 -3.44663640e-05 -2.87155017e-05 2.36219494e-05
      1.41957944e-05 2.98122950e-06 2.56544699e-05 2.30391584e-06
      1.86909092e-05 4.86789540e-05 7.37323062e-05 1.03259037e-04
      1.03259037e-04 9.33624106e-05 7.45983634e-05 7.68055615e-05
      1.71181455e-05 -1.24085900e-05 -1.83071934e-05 -3.78968398e-05
      -3.78968398e-05 -4.63907127e-05 -5.90952950e-05 -4.72461907e-05
      -4.07143962e-05 -5.79601692e-05 -6.13882512e-05 -2.86396316e-05
      2.51196411e-06 1.52795783e-05 2.30201240e-05 2.78956904e-05
      3.50669179e-05 4.48941501e-05 6.57738565e-06 2.30391584e-06
      1.86909092e-05 4.86789540e-05 7.76985544e-05 1.03259037e-04
      7.12608016e-05 5.97393118e-05 6.77343342e-05 5.40205947e-05
      2.43664617e-05 -1.83071934e-05 -4.42959899e-05 -4.42959899e-05
      -6.54944452e-05 -7.00971868e-05 -7.00971868e-05 -7.10050226e-05
      -4.34980248e-05 -3.38350983e-05 -6.51625596e-05 -1.74968827e-05
      3.83641509e-06 1.52795783e-05 4.75738052e-05 5.44390532e-05
      4.60688098e-05 6.44450920e-05 1.04843029e-05 3.11111362e-05
      1.97018744e-05 3.68298533e-05 5.26452022e-05 7.12608016e-05
      7.12608016e-05 7.50552208e-05 6.34605894e-05 4.97468536e-05
      2.02201190e-05 -3.07990995e-05 -6.69254805e-05 -7.54193534e-05
      -7.73000138e-05 -7.73000138e-05 -9.18465230e-05 -6.95921408e-05
      -6.95921408e-05 -7.47276063e-05 -6.08888222e-05 9.60017223e-06
      2.08147376e-05 5.21765469e-05 5.93694094e-05 7.72900457e-05
      7.82838761e-05 3.32934942e-05 3.92915244e-05 1.86909092e-05
      1.97018744e-05 3.68298533e-05 3.27334892e-05 5.57724961e-05
      8.65767070e-05 7.50552208e-05 5.59514883e-05 1.11638906e-06
      -5.36701327e-06 -1.23140444e-05 -6.60854494e-05 -4.45847545e-05
      -4.45847545e-05 -5.82234243e-05 -8.65767070e-05 -7.38721283e-05
      -7.38721283e-05 -7.38721283e-05 -5.35291510e-05 1.59993215e-05
      2.06020613e-05 6.04563575e-05 6.76492200e-05 8.61683002e-05
      4.87571378e-05 6.43448730e-05 5.05060889e-05 1.86909092e-05
      1.25324532e-05 7.17300054e-06 3.00846077e-05 4.96742578e-05
      7.38721283e-05 6.23506421e-05 4.94680862e-05 -9.67821688e-06
      -1.23140444e-05 -4.03975646e-05 -1.77514612e-05 -4.70088598e-05
      -6.87464853e-05 -7.38721283e-05 -7.38721283e-05 -7.38721283e-05
      -6.53782554e-05 -6.34975950e-05 -2.13441053e-05 8.64394133e-06
      4.73945402e-05 7.35473368e-05 9.42139959e-05 8.01749993e-05
      7.61939737e-05 6.43448730e-05 3.09164388e-05 1.86909092e-05
      -2.10906455e-05 1.68651204e-05 3.00846077e-05 3.23669374e-05
      3.23669374e-05 4.41459160e-05 3.31689225e-05 -1.51106524e-05
      -2.81850025e-05 -4.33270543e-05 -4.33270543e-05 -3.69696754e-05
      -6.26575638e-05 -7.38721283e-05 -6.28702401e-05 -5.43763636e-05
      -4.90541934e-05 -1.76467966e-05 5.64184938e-06 4.71944295e-05
      7.24019337e-05 8.70445801e-05 6.95613489e-05 9.33219490e-05
      7.61939737e-05 5.55933584e-05 4.37442577e-05 2.99054736e-05
      4.16234707e-06 1.29566306e-05 3.23669374e-05 2.06456170e-05
      1.87649548e-05 -1.00422658e-05 -1.37913012e-05 -4.06862455e-05
      -3.00808751e-05 -3.40505539e-05 -3.69696754e-05 -3.05705253e-05
      -2.52483569e-05 -4.63335018e-05 -5.56674058e-05 -4.71735329e-05
      -1.66358313e-05 -4.64463199e-07 1.87341029e-05 6.88801883e-05
      8.07292890e-05 8.02221548e-05 8.18004628e-05 9.33219490e-05
      7.61939737e-05 5.55933584e-05 4.37442577e-05 2.99054736e-05
      4.16234707e-06 -1.15201119e-05 2.70447654e-05 1.87649548e-05
      -1.36117769e-05 -1.36117769e-05 -6.38888014e-05 -4.65759986e-05
      -3.00808751e-05 -4.44431607e-05 -2.59677854e-05 -2.59677854e-05
      -1.87649548e-05 -1.87649548e-05 -4.10247594e-05 -2.34198415e-05
      1.32703462e-05 2.99486674e-05 8.00947528e-05 8.00947528e-05
      6.63833707e-05 7.46310398e-05 8.18004628e-05 8.17273249e-05
      5.66043273e-05 5.55933584e-05 5.55933584e-05 4.37442577e-05
      -7.92833725e-06 1.73640092e-06 -1.01005980e-06 -1.00422658e-05
      -1.36117769e-05 -2.12157156e-05 -5.99225532e-05 -8.34784514e-05
      -5.37688575e-05 -4.83003205e-05 -5.11960025e-05 -5.78092113e-05
      -4.37738054e-05 -1.46438069e-05 7.52233609e-06 2.05159176e-05
      1.22104848e-05 3.18001330e-05 4.45047117e-05 1.89442253e-05
      1.49779780e-05 2.71918998e-05 3.43613210e-05 2.00207051e-05
      1.44873529e-05 1.34763877e-05 4.70994855e-05 5.55933584e-05
      1.41732744e-05 5.17790841e-06 -3.00284610e-05 -3.03932266e-05
      -2.22266808e-05 -2.22266808e-05 -2.22266808e-05 -6.11445721e-05
      -6.11445721e-05 -3.08539493e-05 -2.32920738e-05 8.65969696e-07
      1.74232662e-06 9.84302551e-06 9.84302551e-06 1.53763776e-05
      3.49660259e-05 3.49660259e-05 9.40553764e-06 1.81438700e-05
      1.55080434e-05 -4.08160486e-06 1.46093043e-05 1.75506830e-06
      7.07723802e-06 4.07003390e-05 4.07003390e-05 2.94857728e-05
      2.97966744e-05 1.72103628e-05 -3.77738288e-05 -4.12019108e-05
      -2.84991384e-05 -1.69045124e-05 -2.40973732e-05 -2.40973732e-05
      -6.05306777e-05 -5.04615200e-05 -1.94648910e-05 -1.63466632e-06
      -7.03388707e-07 6.19316006e-06 2.93523190e-05 2.93523190e-05
      2.93523190e-05 -1.74415703e-07 -1.79927713e-06 1.09053035e-05
      -8.68434472e-06 2.83714280e-06 -7.12141309e-06 -1.79924348e-06
      -8.74006673e-06 2.48830329e-05 2.48830329e-05 2.94857728e-05
      2.12145096e-05 9.77248783e-06 1.23011660e-07 -3.30507009e-06
      3.86435158e-06 -4.09389855e-07 9.52572555e-06 9.52572555e-06
      4.20355627e-06 1.05122926e-05 1.39403746e-05 1.39403746e-05
      5.20027024e-05 5.20027024e-05 5.22123119e-05 2.66518236e-05
      1.94824024e-05 3.05621215e-05 3.05621215e-05 3.77315409e-05
      1.80687548e-05 1.25354045e-05 9.36370088e-06 1.12443631e-05
      1.12443631e-05 2.13135227e-05 2.48830329e-05 -3.83246788e-06
      3.38428504e-06 -1.27413923e-05 1.52604935e-05 1.57986597e-05
      1.57986597e-05 2.29680809e-05 1.15014782e-05 1.15014782e-05
      1.15014782e-05 1.15014782e-05 1.49295602e-05 1.92033003e-05
      3.07979280e-05 3.40245424e-05 2.23028383e-05 1.07082114e-05
      2.09324535e-05 1.37630313e-05 1.37630313e-05 1.34280515e-06
      1.34280515e-06 1.34280515e-06 1.34280515e-06 1.34280515e-06
      -8.62563502e-06 -8.62563502e-06 -1.60917534e-06 2.56668159e-06
      -1.78302234e-05 -1.21238600e-07 4.23253539e-07 -7.18068532e-06
      -5.55582392e-06 -5.55582392e-06 -5.57926433e-06 -5.57926433e-06
      -5.57926433e-06 -5.57926433e-06 -5.57926433e-06 -5.57926433e-06
      -7.20412572e-06 -7.20412572e-06 -7.20412572e-06 -7.20412572e-06
      -7.20412572e-06 -2.67937739e-05 -2.67937739e-05 -2.67937739e-05
      -2.67937739e-05 -2.67937739e-05 -2.67937739e-05 -2.67937739e-05
      -1.42921672e-05 -1.42921672e-05 -2.20060811e-05 0. -1.78302234e-05
      -1.78302234e-05 8.51586549e-07 8.94499226e-06 8.94499226e-06
      8.94499226e-06 8.94499226e-06 1.75213017e-06 1.75213017e-06
      8.92155185e-06 8.92155185e-06 8.92155185e-06 8.92155185e-06
      -1.06680964e-05 -1.06680964e-05 -1.06680964e-05 -1.06680964e-05
      -1.06680964e-05 -1.06680964e-05 -1.06680964e-05 -1.06680964e-05
      -1.06680964e-05 -1.06680964e-05 -1.06680964e-05 -1.06680964e-05
      -2.59309236e-05 -1.78302234e-05 -1.78302234e-05 0. 0.
      -9.07837148e-07 -4.33591913e-06 -4.33591913e-06 -4.33591913e-06
      -4.33591913e-06 7.18556885e-06 -7.29349958e-09 -7.29349958e-09
      7.16212844e-06 7.16212844e-06 7.16212844e-06 7.16212844e-06
      7.16212844e-06 7.16212844e-06 7.16212844e-06 7.16212844e-06
      7.16212844e-06 7.16212844e-06 7.16212844e-06 7.16212844e-06
      7.16212844e-06 -4.35935954e-06 -1.15287812e-05 -8.10069923e-06
      -7.19286209e-06 0. 0. 0. 0. -9.07837148e-07 -9.07837148e-07
      -9.07837148e-07 -9.07837148e-07 -9.07837148e-07 1.06136504e-05
      3.42078829e-06 3.42078829e-06 3.42078829e-06 3.42078829e-06
      1.05902100e-05 1.05902100e-05 1.05902100e-05 1.05902100e-05
      1.05902100e-05 1.05902100e-05 1.05902100e-05 1.05902100e-05
      3.42078829e-06 -8.10069923e-06 -8.10069923e-06 -8.10069923e-06
      -8.10069923e-06 -7.19286209e-06 0.</_>
    <_>
      0. 0. 0. -2.54985252e-06 -2.54985252e-06 -1.82486692e-05
      -1.57942177e-05 -1.44326341e-05 -4.95205040e-06 -4.95205040e-06
      7.54588973e-06 1.02768299e-05 1.02768299e-05 7.54588973e-06
      7.54588973e-06 -4.95205040e-06 -6.31363537e-06 -6.31363537e-06
      -1.32443656e-05 -1.32443656e-05 -1.32443656e-05 -1.05134259e-05
      -1.45363356e-05 -4.00738145e-06 -4.00738145e-06 0. 0. 0. 0. 0.
      -2.54985252e-06 -1.13041879e-05 -3.31925366e-05 -1.77712482e-05
      -1.25858560e-05 -1.25858560e-05 -1.06414300e-05 -1.06414300e-05
      -1.06414300e-05 -1.06414300e-05 -1.06414300e-05 -3.86777101e-05
      -3.86777101e-05 -1.06414300e-05 -1.06414300e-05 -1.06414300e-05
      -1.06414300e-05 -1.24160479e-05 -1.37776333e-05 -2.82199999e-05
      -4.03361228e-05 -1.56988172e-05 -4.00738145e-06 -4.00738145e-06 0.
      0. 0. 0. 6.86412386e-06 -1.64743651e-05 -9.39116262e-07
      9.10402491e-07 -1.15255318e-06 -1.15255318e-06 -1.15255318e-06
      -1.15255318e-06 -1.15255318e-06 -1.15255318e-06 -2.91888337e-05
      -3.10383512e-05 -3.10383512e-05 -3.10383512e-05 -1.06414300e-05
      -4.32804018e-06 -4.32804018e-06 -4.32804018e-06 -6.10265897e-06
      -7.46424348e-06 -1.99621845e-05 -3.24197899e-05 1.17801017e-06
      -4.00738145e-06 -4.00738145e-06 0. -2.22939525e-05 -1.28799766e-05
      -4.48348101e-06 5.46460660e-06 8.50191554e-06 1.04463415e-05
      1.04463415e-05 -2.15973196e-05 -2.15973196e-05 -2.15973196e-05
      -2.15973196e-05 -2.15973196e-05 -2.15973196e-05 -1.52839311e-05
      -2.58128857e-05 -1.87972437e-05 -1.87972437e-05 -2.06467630e-05
      -2.82861201e-05 -2.82861201e-05 -2.82861201e-05 -3.00607389e-05
      -1.58839848e-05 -2.00837749e-05 -7.78691174e-06 1.45070408e-05
      9.32164858e-06 0. -1.23497275e-05 -9.13862368e-06 8.54470818e-06
      3.58861325e-05 3.78305594e-05 9.79428023e-06 9.79428023e-06
      1.86353063e-05 9.79428023e-06 8.01966144e-06 7.40232053e-06
      -2.55063151e-05 -1.84906748e-05 -4.05781248e-05 -5.30447942e-05
      -4.05468563e-05 -1.84942910e-05 -1.84942910e-05 -1.15635603e-05
      -2.10524377e-05 -2.10524377e-05 -2.10524377e-05 -1.83214961e-05
      -2.60329452e-05 2.07477096e-05 4.45743681e-05 1.33290305e-05
      7.01564113e-06 -7.56276768e-06 1.42095132e-05 4.76646019e-05
      4.96090288e-05 2.15727487e-05 1.86353063e-05 1.86353063e-05
      1.17045756e-05 4.74456556e-06 -9.11495954e-06 -2.80156996e-06
      4.21407094e-06 4.21407094e-06 -4.07838888e-06 -2.46588916e-05
      -1.14473542e-05 -3.75392083e-05 -2.36796823e-05 -2.36796823e-05
      -1.92029183e-05 -2.10524377e-05 -7.79254242e-06 -5.24268944e-06
      1.92836851e-05 -3.28118949e-06 4.45743681e-05 3.93889750e-05
      7.01564113e-06 8.84240671e-06 1.90450191e-05 4.56035086e-05
      4.56035086e-05 1.75672267e-05 1.75672267e-05 1.75672267e-05
      -1.26787745e-05 -1.26787745e-05 -6.36538516e-06 6.50255799e-07
      1.62131546e-05 1.64733156e-05 1.64733156e-05 1.71678512e-05
      -7.97180201e-06 -2.83824975e-05 -6.21236031e-05 -5.28248565e-05
      -4.58941249e-05 -3.00843785e-05 8.38772820e-08 -3.54809868e-06
      -3.54809868e-06 -4.34926915e-06 -6.29369515e-06 3.93889750e-05
      3.93889750e-05 4.18768032e-05 4.88075311e-05 6.84352926e-05
      7.35789145e-05 4.55426343e-05 2.27108485e-05 8.11148129e-06
      -1.45282938e-05 -3.74911542e-06 -2.31056274e-05 -9.49172318e-06
      1.46237971e-05 1.06164152e-05 4.30302589e-06 -2.26268003e-05
      -1.49874422e-05 -1.49874422e-05 -1.24375902e-05 -4.52504210e-05
      -3.19563987e-05 -1.14374043e-05 -7.43002283e-06 4.09125914e-06
      1.82156055e-05 -2.57465035e-06 -6.29369515e-06 4.45743681e-05
      3.93889750e-05 4.18768032e-05 4.88075311e-05 7.35789145e-05
      7.35789145e-05 4.55426343e-05 4.03572412e-05 1.57508384e-05
      -1.25901415e-05 -1.25901415e-05 4.88229625e-06 3.71981491e-06
      7.67897382e-06 1.36558447e-06 -2.44763196e-05 -2.44763196e-05
      -2.26268003e-05 -4.10473876e-05 -3.05184331e-05 -2.21014379e-05
      -4.91753162e-05 -3.05525282e-05 -3.05525282e-05 2.76627125e-05
      3.09985844e-05 3.93055643e-06 4.45743681e-05 4.45743681e-05
      3.82609796e-05 3.75733180e-05 7.16344875e-05 7.35789145e-05
      7.35789145e-05 7.35789145e-05 6.83935214e-05 6.74499897e-05
      -1.48928541e-06 1.13107662e-05 7.30338434e-06 -1.56228016e-05
      -2.38806169e-05 -1.04855617e-05 -3.33173448e-05 -5.05362659e-05
      -5.05362659e-05 -4.86867466e-05 -4.10473876e-05 -6.73090472e-05
      -7.00091732e-06 -2.74116119e-05 -9.42025690e-06 2.76627125e-05
      3.28481037e-05 1.15699140e-05 4.77105714e-05 4.45743681e-05
      3.82609796e-05 3.38759128e-05 7.16344875e-05 7.35789145e-05
      7.35789145e-05 7.98922993e-05 7.47069134e-05 6.49001377e-05
      2.64201790e-05 -9.92817786e-06 -1.96039418e-05 -2.90242388e-05
      -5.88716648e-05 -8.49316129e-05 -8.49316129e-05 -6.45209147e-05
      -8.37161642e-05 -8.37161642e-05 -8.18666449e-05 -4.73199652e-05
      -2.45852825e-05 -2.28106637e-05 6.19934872e-06 2.59681219e-05
      3.63233776e-05 1.50451860e-05 4.77105714e-05 4.63489887e-05
      3.12453376e-05 1.34652173e-05 5.51541016e-05 7.35789145e-05
      7.98922993e-05 7.98922993e-05 8.17225518e-05 6.45125547e-05
      4.30432228e-05 -8.46624880e-06 -2.25809636e-05 -5.63218091e-05
      -7.18528026e-05 -7.18528026e-05 -1.10418034e-04 -1.12967886e-04
      -9.25571949e-05 -8.37161642e-05 -8.07787292e-05 -5.49593242e-05
      -2.45852825e-05 1.33501499e-05 1.33501499e-05 2.17303404e-05
      1.80747065e-05 2.53852631e-05 7.29914900e-05 3.82609796e-05
      3.12453376e-05 1.21036328e-05 5.33045823e-05 7.35789145e-05
      7.98922993e-05 8.69079449e-05 8.17225518e-05 9.05724955e-05
      4.06221370e-05 6.22679136e-06 -1.85355420e-05 -4.45954865e-05
      -4.45954865e-05 -4.45954865e-05 -7.26317667e-05 -8.57105770e-05
      -8.57105770e-05 -6.80308221e-05 -6.43596577e-05 -6.08843839e-05
      -2.48431716e-05 -8.41355450e-06 -8.41355450e-06 1.76463909e-05
      5.35852951e-06 5.22590635e-05 5.54844992e-05 1.70324493e-05
      3.12453376e-05 1.21036328e-05 3.28938877e-05 5.52490092e-05
      8.69079449e-05 8.69079449e-05 1.07782500e-04 9.05724955e-05
      5.43047754e-05 4.79913870e-05 9.77959735e-06 -2.57692245e-05
      -2.57692245e-05 -2.57692245e-05 -5.38055065e-05 -5.38055065e-05
      -5.38055065e-05 -5.38055065e-05 -5.47709242e-05 -5.91897915e-05
      -2.24390424e-05 -3.12453376e-05 -5.18539173e-06 1.76463909e-05
      2.28317840e-05 3.97239746e-05 3.69856061e-05 1.88070680e-05
      -1.41711198e-05 1.21036328e-05 3.28938877e-05 4.11517030e-05
      7.92685823e-05 1.12967886e-04 1.07782500e-04 1.06007879e-04
      7.37606097e-05 5.09288293e-05 4.19687603e-05 -1.33429066e-05
      -2.28317840e-05 -2.28317840e-05 -2.28317840e-05 -2.57692245e-05
      -5.38055065e-05 -5.38055065e-05 -5.38055065e-05 -5.75018639e-05
      -2.42885617e-05 -1.95281846e-05 -5.18539173e-06 -5.18539173e-06
      2.28317840e-05 2.43686259e-06 9.01513522e-06 2.31002941e-05
      -1.41711198e-05 1.21036328e-05 3.28938877e-05 4.81673451e-05
      7.42272896e-05 1.12967886e-04 1.07782500e-04 1.07782500e-04
      7.37606097e-05 6.67449713e-05 4.06850231e-05 1.59088158e-05
      -1.51924260e-05 -2.28317840e-05 -2.28317840e-05 -2.28317840e-05
      -2.57692245e-05 -2.57692245e-05 -2.57692245e-05 -4.38128409e-05
      -1.43033258e-05 2.35085063e-05 -5.18539173e-06 -5.18539173e-06
      -6.31338935e-06 -1.94978056e-05 -1.90211449e-05 -2.21735027e-05
      1.03290140e-05 1.21036328e-05 2.67093383e-05 4.81673451e-05
      7.42272896e-05 7.42272896e-05 1.07782500e-04 1.07782500e-04
      6.81065576e-05 6.81065576e-05 4.06850231e-05 4.06850231e-05
      3.87405998e-05 7.63935805e-06 0. 0. 0. 0. 8.25781535e-06
      -2.49021887e-05 -8.66983100e-06 4.15199429e-06 -5.18539173e-06
      -1.14987815e-05 -1.33290305e-05 -1.94978056e-05 -4.49523250e-05
      -6.42005398e-05 -5.95133451e-06 1.84170221e-05 2.67942469e-05
      7.42272896e-05 7.42272896e-05 7.42272896e-05 7.42272896e-05
      1.01469108e-04 6.81065576e-05 4.20466095e-05 4.06850231e-05
      4.06850231e-05 3.87405998e-05 3.87405998e-05 9.48887646e-06 0. 0.
      6.31338935e-06 -9.36384822e-06 1.97161080e-06 -2.90805274e-05
      -2.35152947e-05 -1.14987815e-05 -1.85144218e-05 -1.33290305e-05
      -1.94978056e-05 -4.49523250e-05 -4.08366468e-05 -5.95133451e-06
      -6.08311166e-06 6.07615129e-06 5.48707794e-05 2.42846472e-05
      2.42846472e-05 2.42846472e-05 5.77022456e-06 1.92261105e-05
      -5.34618221e-06 2.13285130e-05 2.13285130e-05 1.68342340e-05
      1.68342340e-05 1.68342340e-05 -1.24174876e-05 -1.24174876e-05
      9.11543111e-07 1.14604873e-05 2.99148287e-05 -3.84179148e-05
      -2.54834304e-05 -1.85144218e-05 -1.85144218e-05 -2.58269702e-05
      -4.55577538e-05 -2.04259522e-05 -2.17875368e-05 2.88969181e-06
      2.02890405e-05 4.09981749e-06 -7.03955584e-06 1.45100262e-06
      5.85488897e-06 1.63838431e-05 -2.13057911e-06 -2.41831440e-05
      1.01890673e-05 3.25833616e-06 2.99330313e-05 2.73831793e-05
      2.54387523e-05 2.77447598e-05 2.77447598e-05 5.40518477e-06
      5.43931492e-06 3.14992612e-05 3.46298134e-06 -2.43206068e-05
      -2.03398085e-05 -1.85144218e-05 8.42089094e-07 -2.20014517e-05
      -2.10313774e-05 -1.59968909e-06 -2.96127405e-06 2.33003866e-05
      1.33290305e-05 2.61091118e-05 -1.93392534e-05 -2.15758919e-05
      -1.29713735e-05 5.85488897e-06 5.85488897e-06 -3.24060893e-05
      -3.41807099e-05 -8.22308994e-06 -7.51446260e-06 1.91602321e-05
      2.61758742e-05 2.61758742e-05 7.34961077e-06 1.42803419e-05
      4.03402883e-05 1.23040081e-05 7.35220328e-06 -1.54795798e-05
      -1.85144218e-05 -4.45743681e-05 -6.95365861e-06 -1.84815253e-05
      -2.04259522e-05 -1.59968909e-06 -2.96127405e-06 1.56610295e-05
      3.93889750e-05 2.74809554e-05 2.86589657e-05 -1.05116960e-05
      -6.11280211e-06 6.38513802e-06 6.38513802e-06 6.38513802e-06
      -2.66348179e-05 -2.66348179e-05 -2.52671862e-06 -6.77199864e-07
      2.73590795e-05 3.49984366e-05 6.10583811e-05 6.10583811e-05
      3.30221046e-05 2.92585664e-05 -5.88857574e-07 3.41852410e-06
      -1.86606230e-05 -2.15336186e-07 3.44736861e-07 -1.59968909e-06
      -9.23904645e-06 -1.24501503e-05 3.84179148e-05 3.14996723e-05
      7.30636202e-06 1.36197514e-05 2.57233842e-05 2.17160032e-05
      -6.32027741e-06 -1.82185868e-05 4.92946947e-06 4.92946947e-06
      4.92946947e-06 -2.03054105e-06 -2.03054105e-06 -2.03054105e-06
      2.72211819e-05 2.72211819e-05 2.72211819e-05 2.27573109e-05
      1.98198686e-05 1.28042275e-05 3.12339871e-05 3.11590848e-05
      -2.21340883e-06 -1.10885658e-05 -1.10885658e-05 -1.10885658e-05
      -1.24501503e-05 3.84179148e-05 3.66432942e-05 0. 7.30636202e-06
      7.30636202e-06 1.88051436e-05 2.57233842e-05 2.57233842e-05
      2.57233842e-05 -2.31289596e-06 -9.51311051e-07 -9.51311051e-07
      -9.51311051e-07 -2.72592956e-06 -5.45686999e-06 7.04107015e-06
      7.04107015e-06 1.22996471e-05 -1.98292653e-07 1.31967618e-05
      1.31967618e-05 1.49713806e-05 -1.10885658e-05 -1.10885658e-05
      -1.10885658e-05 1.69477134e-05 1.55861289e-05 -1.88712465e-06
      1.91700401e-05 0. 0. -2.93744142e-06 2.31225040e-05 5.47611307e-06
      7.25073141e-06 1.42663730e-05 1.42663730e-05 1.94099939e-05
      1.94099939e-05 1.94099939e-05 1.94099939e-05 1.94099939e-05
      1.94099939e-05 1.37559382e-05 -1.42803419e-05 1.37559382e-05
      1.37559382e-05 1.37559382e-05 -1.36655926e-05 -1.36655926e-05
      -1.36655926e-05 -1.36655926e-05 -1.36655926e-05 9.16619138e-06
      1.21036328e-05 6.96001052e-06 5.18539173e-06 0. 0. 0. 0.
      2.60599463e-05 2.83078971e-05 3.00825159e-05 3.00825159e-05
      3.00825159e-05 3.00825159e-05 3.00825159e-05 3.00825159e-05
      3.00825159e-05 3.00825159e-05 3.00825159e-05 5.38415361e-06
      5.38415361e-06 5.38415361e-06 5.38415361e-06 4.02256910e-06
      4.02256910e-06 6.96001052e-06 6.96001052e-06 6.96001052e-06
      6.96001052e-06 6.96001052e-06 5.18539173e-06 0. 0. 0. 0. 0. 0. 0.
      0. 1.77461857e-06 1.77461857e-06 6.96001052e-06 6.96001052e-06
      6.96001052e-06 6.96001052e-06 6.96001052e-06 6.96001052e-06
      6.96001052e-06 6.96001052e-06 6.96001052e-06 6.96001052e-06
      6.96001052e-06 6.96001052e-06 6.96001052e-06 6.96001052e-06
      6.96001052e-06 6.96001052e-06 0. 0. 0. 0. 0. 0. 0. 0. 0. 0. 0. 0.
      0. 5.18539173e-06 5.18539173e-06 6.96001052e-06 6.96001052e-06
      6.96001052e-06 6.96001052e-06 6.96001052e-06 6.96001052e-06
      6.96001052e-06 6.96001052e-06 6.96001052e-06 6.96001052e-06
      5.18539173e-06 5.18539173e-06 0. 0. 0. 0. 0. 0.</_>
    <_>
      0. 0. 0. 0. 0. 0. 3.12354746e-06 3.12354746e-06 1.07609721e-05
      1.07609721e-05 1.07609721e-05 1.07609721e-05 -3.55770703e-06
      -3.55770703e-06 -3.55770703e-06 -3.55770703e-06 -6.33170202e-06
      7.98697693e-06 3.49552664e-07 3.49552664e-07 3.12354746e-06
      3.12354746e-06 0. 0. 0. 0. 0. 0. 0. 0. 0. -7.21665083e-06
      -7.21665083e-06 7.63742446e-06 1.07609721e-05 1.07609721e-05
      1.30235039e-05 8.35196624e-06 8.35196624e-06 8.35196624e-06
      -5.96671271e-06 -1.29517480e-06 -3.25329052e-06 -6.02728551e-06
      -5.52450410e-06 8.79417439e-06 8.79417439e-06 1.02495087e-05
      1.02495087e-05 1.07609721e-05 -1.18226599e-05 -1.18226599e-05
      -1.18226599e-05 0. 0. 0. 0. 0. 1.09783305e-05 6.88522687e-06
      1.45226513e-05 1.45226513e-05 2.40018344e-05 2.40018344e-05
      2.40018344e-05 1.93302967e-05 1.93302967e-05 5.01161730e-06
      5.01161730e-06 7.72503972e-06 6.50130687e-06 6.50130687e-06
      -3.97424174e-06 2.26100346e-05 3.40388542e-05 2.85557599e-05
      2.85557599e-05 1.95070952e-05 1.95070952e-05 -2.65845779e-06
      -2.65845779e-06 6.04065417e-06 0. 0. 0. -1.45445347e-05
      -1.14209870e-05 -1.14209870e-05 -3.78356299e-06 -1.52103075e-06
      1.67851831e-05 1.93302967e-05 1.93302967e-05 1.93302967e-05
      -2.87796174e-05 -2.27389646e-05 -2.46970794e-05 -1.77455713e-05
      -1.77455713e-05 -1.65029633e-05 -1.60001819e-05 9.74731847e-06
      3.52814641e-05 2.49141394e-05 2.07497051e-05 2.07497051e-05
      2.07497051e-05 1.31122815e-05 -7.86700275e-06 -7.86700275e-06
      -1.09905495e-05 6.04065417e-06 -1.45445347e-05 -1.45445347e-05
      -1.14209870e-05 4.39146897e-05 4.61772215e-05 4.61772215e-05
      4.15056820e-05 7.43276833e-05 6.70285444e-05 2.49592886e-05
      2.95874615e-05 -8.64008507e-06 -1.46091088e-05 -1.27115654e-05
      -2.08460642e-05 -2.08460642e-05 -4.46595777e-06 3.18212951e-05
      3.94587223e-05 3.54309595e-05 3.99213532e-05 9.38194171e-06
      1.75164405e-05 2.17016768e-05 2.17016768e-05 1.94391450e-05
      -1.09905495e-05 7.28326359e-06 -1.45445347e-05 3.31537158e-05
      5.12138249e-05 5.34763567e-05 5.34763567e-05 5.34763567e-05
      4.88048172e-05 7.43640121e-05 7.01790850e-05 4.78166730e-05
      5.81241547e-05 4.93811385e-05 4.12466397e-05 4.59181756e-05
      -4.04260800e-06 -7.28707710e-06 4.35881520e-05 4.35881520e-05
      4.35881520e-05 5.48117532e-05 9.38194171e-06 9.38194171e-06
      2.12046016e-05 2.93391004e-05 2.17016768e-05 1.94391450e-05
      4.68550061e-05 7.28326359e-06 3.31537158e-05 4.04528510e-05
      5.34763567e-05 5.34763567e-05 5.34763567e-05 5.34763567e-05
      6.36952172e-05 3.78997174e-05 3.68383444e-05 4.71458261e-05
      3.84028062e-05 2.80057757e-05 4.38831012e-05 3.06913244e-05
      5.59883338e-05 7.80167538e-05 3.03185025e-05 2.30193673e-05
      3.40016195e-05 1.38208743e-05 -1.06952666e-06 3.21829320e-05
      2.12046016e-05 2.93391004e-05 2.17016768e-05 4.99785565e-05
      4.68550061e-05 3.54261865e-05 4.04528510e-05 4.80902781e-05
      5.34763567e-05 5.34763567e-05 6.83667604e-05 6.83667604e-05
      2.72309280e-05 2.96216931e-05 4.83884360e-05 3.84028062e-05
      3.02683075e-05 4.38831012e-05 2.60197885e-05 1.84257278e-05
      5.38642125e-05 6.53453244e-05 6.53453244e-05 4.35256334e-05
      -1.45137767e-06 1.25782644e-05 2.44009243e-05 2.44009243e-05
      4.70733321e-05 4.42295022e-05 5.22410883e-05 4.99785565e-05
      4.99785565e-05 4.68550061e-05 4.04528510e-05 6.29806746e-05
      6.83667604e-05 6.83667604e-05 6.83667604e-05 6.52432136e-05
      2.99312323e-05 3.38726495e-05 3.83153056e-05 3.88464978e-05
      3.88464978e-05 3.20604413e-05 -1.13621070e-06 2.46551317e-05
      3.89738088e-05 3.94765921e-05 2.76483079e-05 3.03695488e-05
      4.21922086e-05 4.39391260e-06 8.52359881e-06 8.52359881e-06
      4.39497853e-05 8.57472405e-05 6.71314920e-05 4.99785565e-05
      4.99785565e-05 3.77129581e-05 3.25980691e-05 6.61042286e-05
      6.83667604e-05 6.83667604e-05 2.99039839e-05 2.38905795e-05
      4.19841053e-05 -1.65995971e-05 -2.37421555e-05 -2.37421555e-05
      -4.16054681e-05 -5.61335983e-05 1.73559965e-05 3.21774569e-05
      2.63732618e-05 1.77957634e-06 4.50081734e-06 2.73018068e-05
      4.21922086e-05 5.20921640e-05 4.39391260e-06 2.68298500e-05
      7.44891950e-05 8.57472405e-05 7.81098206e-05 6.48689529e-05
      4.99785565e-05 3.16723053e-05 4.36051487e-05 6.61042286e-05
      6.83667604e-05 4.06161780e-05 4.53203793e-05 4.21968289e-05
      3.92101101e-05 -1.60684049e-05 -3.55648153e-05 -3.55648153e-05
      -5.61335983e-05 -3.03422548e-05 -3.13981218e-05 -5.91635362e-05
      -6.97489304e-06 1.63234763e-05 1.63234763e-05 -1.74677589e-05
      -7.94476273e-06 1.68455954e-05 5.06368306e-05 6.44556712e-05
      7.30338652e-05 8.57472405e-05 7.81098206e-05 6.48689529e-05
      6.48689529e-05 3.04296937e-05 -4.09310314e-06 4.78267611e-05
      6.83667604e-05 3.85630956e-05 4.53203793e-05 4.06654435e-05
      2.38639786e-05 -9.61359819e-06 -3.55648153e-05 -5.61335983e-05
      -1.89134335e-05 -6.24403110e-05 -5.91635362e-05 -4.01292455e-05
      -3.86739084e-05 9.02434203e-06 -1.74677589e-05 -3.07457522e-05
      -3.07457522e-05 3.55623451e-05 5.23372146e-05 9.75572693e-05
      7.75590015e-05 8.42919108e-05 7.81098206e-05 7.58472888e-05
      5.26033582e-05 1.90008723e-05 -4.09310314e-06 1.40355251e-05
      4.06161780e-05 4.53203793e-05 4.23336569e-05 2.38639786e-05
      2.74158629e-05 4.88803835e-06 -3.06271395e-05 -2.35849730e-05
      -4.57167989e-05 -5.91635362e-05 -4.01292455e-05 -3.86739084e-05
      -3.86739084e-05 -3.86739084e-05 -3.80448873e-05 -3.35197474e-05
      -2.17894067e-05 2.13072017e-05 4.49569634e-05 4.49569634e-05
      9.46255241e-05 9.15910423e-05 7.66544836e-05 7.58472888e-05
      4.53200955e-05 1.90008723e-05 -2.29939378e-05 -3.36627272e-05
      2.48666656e-05 4.23336569e-05 1.51648665e-05 2.74158629e-05
      2.74158629e-05 4.88803835e-06 4.58958857e-05 -1.88611448e-05
      -7.62562122e-05 -4.28504864e-05 -3.86739084e-05 -4.88456244e-05
      -6.41967781e-05 -7.60194380e-05 -1.14039998e-04 -4.09767308e-05
      -2.64609444e-05 2.93070952e-05 4.22357225e-05 5.81130480e-05
      6.08342889e-05 1.32024914e-04 8.39536224e-05 5.48430908e-05
      4.53200955e-05 3.12354746e-06 -2.29939378e-05 -4.25635953e-05
      -2.48846682e-05 4.18653690e-06 3.05394096e-05 2.74158629e-05
      2.74158629e-05 -4.39576252e-05 1.53564761e-05 5.59683212e-06
      -3.91365429e-05 -4.01292455e-05 -3.05394096e-05 -5.60622757e-05
      -3.73455259e-05 -4.54800247e-05 -8.81721280e-05 -1.09702436e-04
      -6.20041828e-05 1.06298921e-06 1.93692031e-05 2.75736365e-05
      2.75736365e-05 5.95597630e-05 3.06175643e-05 6.21422296e-05
      4.34142712e-05 3.12354746e-06 -2.29939378e-05 -3.99155797e-05
      -5.13136329e-05 -3.54363074e-05 3.05394096e-05 2.74158629e-05
      -3.12354746e-06 -2.90672233e-05 -4.52002350e-05 -3.47071691e-05
      -3.42484600e-05 -7.66209560e-05 -1.05905499e-04 -7.53660861e-05
      -7.53660861e-05 -8.00376292e-05 -1.02490805e-04 -1.09702436e-04
      -7.69650069e-05 -3.72783397e-05 -1.41018772e-05 -2.62076628e-06
      2.05077185e-06 3.54715085e-05 3.23734785e-05 2.83509908e-05
      -6.25429084e-06 -3.06676884e-05 -1.09669136e-05 -2.93009271e-05
      -5.13136329e-05 -3.54363074e-05 -3.54363074e-05 -3.12354746e-06
      -3.12354746e-06 -3.03098332e-05 -3.08815543e-05 -5.49636788e-05
      -3.19859282e-05 -4.80642811e-05 -7.25222562e-05 -8.35005849e-05
      -8.81721280e-05 -1.02993588e-04 -1.02993588e-04 -8.96364363e-05
      -1.07504413e-04 -2.14010124e-05 -1.41018772e-05 -3.12354746e-06
      -1.53891451e-05 2.66537836e-06 2.05508186e-05 3.43730208e-05
      -1.66195514e-05 9.87254862e-06 1.45559879e-05 -1.90450589e-06
      -1.71300926e-05 -3.54363074e-05 -6.59757206e-05 -6.59757206e-05
      -1.53891451e-05 -3.03098332e-05 -4.61871568e-05 -7.20035969e-05
      -7.20035969e-05 -3.63339423e-05 -3.63339423e-05 -9.60028628e-05
      -1.10205219e-04 -1.10205219e-04 -7.70085680e-05 -9.26140128e-05
      -9.26140128e-05 -6.90992674e-05 -2.14010124e-05 -1.53891451e-05
      -2.26724078e-05 -1.95488610e-05 -2.90137586e-06 -9.79029664e-06
      -2.09760728e-05 5.38215681e-06 1.72694108e-05 1.34466436e-05
      2.38777939e-05 -3.21844818e-05 -3.21844818e-05 -3.21844818e-05
      -5.48568896e-05 -4.75849902e-06 -1.23959226e-05 -2.38247449e-05
      -3.87151449e-05 -3.82564358e-05 -3.82564358e-05 -4.09776767e-05
      -9.59750614e-05 -8.99344086e-05 -8.38982160e-05 -8.16356842e-05
      -5.81209351e-05 -5.81209351e-05 -2.26882803e-05 -2.26724078e-05
      -2.26724078e-05 -3.09776806e-05 -8.87853730e-06 1.88266185e-05
      1.88266185e-05 -1.80158931e-05 1.97825502e-05 3.04855566e-05
      2.63446941e-06 -7.99799454e-06 -7.99799454e-06 -7.99799454e-06
      -2.60850829e-05 -4.80030612e-05 1.79726539e-05 -1.09359064e-06
      -1.29162499e-05 -1.29162499e-05 -9.13812801e-06 3.64779589e-06
      3.64779589e-06 4.89040576e-06 -2.63000074e-05 -1.04226829e-05
      -1.04226829e-05 -2.26882803e-05 -2.87289331e-05 -2.26724078e-05
      2.29414854e-05 -1.24111295e-06 -6.10454208e-06 -1.51229760e-05
      1.54164336e-05 1.68717688e-05 3.09776806e-05 2.39922429e-06
      -5.12562963e-07 7.12486099e-06 -1.11813533e-05 -1.11813533e-05
      -1.98533380e-05 -2.52064201e-05 -2.52064201e-05 2.97909683e-05
      2.17030520e-05 9.88039301e-06 2.25518233e-05 2.25518233e-05
      1.44173246e-05 1.75643563e-05 3.06676884e-05 -3.12354746e-06
      -1.53891451e-05 -2.14297979e-05 -2.57401498e-05 -4.16174771e-05
      -4.70269288e-06 -2.09949430e-05 -1.51229760e-05 -1.51229760e-05
      -1.36676426e-05 1.03838302e-05 -1.15387843e-06 1.63155964e-05
      2.39922429e-06 4.66175652e-06 1.22991805e-05 1.22991805e-05
      1.22991805e-05 1.22991805e-05 -6.70169220e-06 -6.70169220e-06
      4.82956930e-05 3.64730367e-05 3.59702535e-05 4.22770463e-05
      5.81543718e-05 5.81543718e-05 4.13001508e-05 -2.52896461e-06
      -3.77157448e-06 -2.57401498e-05 -4.16174771e-05 -4.70269288e-06
      -2.37689383e-05 -1.51229760e-05 -2.61013065e-05 -2.46459731e-05
      -1.54840418e-05 4.05782339e-05 1.71199354e-05 4.08143533e-05
      4.99785565e-05 4.99785565e-05 4.99785565e-05 4.99785565e-05
      2.93391004e-05 2.93391004e-05 2.93391004e-05 2.62155536e-05
      1.43928937e-05 1.43928937e-05 6.93902839e-05 6.93902839e-05
      6.33496238e-05 5.10840291e-05 2.73617025e-05 1.07729602e-05
      4.28940575e-06 -2.92724508e-06 -1.56810238e-05 -3.70098023e-05
      -3.37330239e-05 -1.12798461e-05 2.07148987e-05 3.25980691e-05
      3.25980691e-05 0. 1.71199354e-05 1.71199354e-05 3.25090805e-05
      3.85497333e-05 4.99785565e-05 4.99785565e-05 4.99785565e-05
      1.94391450e-05 1.94391450e-05 1.94391450e-05 7.61648471e-06
      7.61648471e-06 7.61648471e-06 1.57583077e-06 -3.39063126e-06
      -3.39063126e-06 4.02910155e-05 1.58192106e-05 -1.39158246e-05
      -2.97931492e-05 -3.70098023e-05 -3.42358071e-05 -3.37330239e-05
      -9.82451184e-06 -1.97717200e-05 -1.51001823e-05 -2.55228642e-05 0.
      0. 1.58773255e-05 1.90008723e-05 1.90008723e-05 2.02434821e-05
      2.02434821e-05 2.02434821e-05 2.02434821e-05 2.02434821e-05
      2.02434821e-05 2.02434821e-05 2.02434821e-05 1.90008723e-05
      -1.15385383e-05 -1.15385383e-05 -1.15385383e-05 -1.15385383e-05
      -4.89461745e-05 -5.41204936e-05 -5.55758306e-05 -2.50364174e-05
      -5.05592834e-05 -4.86011668e-05 -2.97920960e-05 -2.23993175e-05
      -2.23993175e-05 -2.55228642e-05 0. 0. 0. 1.58773255e-05
      1.90008723e-05 1.90008723e-05 1.90008723e-05 1.90008723e-05
      1.90008723e-05 1.90008723e-05 1.90008723e-05 1.90008723e-05
      1.90008723e-05 1.90008723e-05 -2.74158629e-05 -2.74158629e-05
      -2.74158629e-05 -2.74158629e-05 -4.44557845e-05 -4.49585641e-05
      -1.90906921e-05 -2.35810840e-05 -2.35810840e-05 -1.85879107e-05
      -4.26923179e-06 4.02306284e-07 0. 0. 0. 0. 0. 0. 0. 0. 0. 0.
      3.12354746e-06 3.12354746e-06 3.12354746e-06 3.12354746e-06
      3.12354746e-06 3.12354746e-06 -2.74158629e-05 -2.74158629e-05
      -2.74158629e-05 -2.74158629e-05 -2.74158629e-05 -1.16979127e-05
      -1.16979127e-05 -1.63694513e-05 -1.58666699e-05 -1.58666699e-05 0.
      0. 0. 0. 0. 0. 0. 0. 0. 0. 0. 0. 0. 3.12354746e-06 3.12354746e-06
      3.12354746e-06 3.12354746e-06 3.12354746e-06 3.12354746e-06
      3.12354746e-06 3.12354746e-06 3.12354746e-06 3.12354746e-06
      3.12354746e-06 -1.11951313e-05 -1.11951313e-05 -1.11951313e-05 0.
      0. 0. 0. 0. 0.</_>
    <_>
      0. 0. 0. -1.98165726e-05 -1.98165726e-05 -1.98165726e-05
      -8.72315240e-07 -8.72315240e-07 -1.49951038e-05 -1.49951038e-05
      -6.50686343e-06 -6.50686343e-06 -6.50686343e-06 -6.50686343e-06
      -6.50686343e-06 -1.49951038e-05 -1.49951038e-05 -1.49951038e-05
      -1.75465902e-05 -1.75465902e-05 -1.75465902e-05 -1.75465902e-05
      -3.64908483e-05 -1.98165726e-05 -1.98165726e-05 0. 0. 0. 0. 0. 0.
      -1.98165726e-05 -1.98165726e-05 -8.77684488e-06 1.87181138e-06
      3.69688519e-06 3.69688519e-06 3.69688519e-06 -1.06905663e-05
      -1.06905663e-05 -1.06905663e-05 -1.06905663e-05 -1.06905663e-05
      -1.06905663e-05 -1.26589821e-05 1.72846967e-06 1.72846967e-06
      -6.65020525e-06 -6.65020525e-06 -1.67427643e-05 -3.82385078e-05
      -3.84592640e-05 -2.17849883e-05 -1.96841552e-06 0. 0.
      -1.43874513e-05 -1.43874513e-05 -4.78114089e-05 -3.96262476e-05
      -2.85865208e-05 -3.29915092e-05 -3.11664335e-05 -3.11664335e-05
      -3.11664335e-05 -3.11664335e-05 -3.11664335e-05 -3.11664335e-05
      -3.11664335e-05 -3.65339147e-05 -3.51863273e-05 -3.51863273e-05
      -5.14345775e-05 -4.20326032e-05 -2.76451501e-05 -2.76451501e-05
      -2.76451501e-05 -2.76451501e-05 -4.45120641e-05 -5.65929804e-05
      -4.01394609e-05 -2.23100906e-05 -1.96841552e-06 0. -5.11610779e-05
      -3.68812434e-05 -3.42587664e-05 -2.70266391e-05 -1.60964773e-05
      -3.11664335e-05 -3.11664335e-05 -3.11664335e-05 -3.11664335e-05
      -3.11664335e-05 -1.13498618e-05 -1.00022735e-05 -1.19706892e-05
      -2.56871226e-06 -1.52636749e-05 -1.20612794e-05 -1.20612794e-05
      -1.74287597e-05 -1.73211447e-05 -1.73211447e-05 -1.73211447e-05
      -1.73211447e-05 -1.72310065e-05 -1.97824920e-05 6.21763138e-06
      1.82328386e-05 -7.11418068e-07 -1.33157919e-05 -3.68812434e-05
      -3.15137622e-05 -2.57705269e-05 3.26582121e-05 3.42625317e-05
      1.75882578e-05 1.75882578e-05 1.75882578e-05 9.20958246e-06
      1.03364155e-05 3.70034795e-05 -2.22078688e-05 -1.90054725e-05
      -3.17004378e-05 -3.17004378e-05 -2.32121965e-05 -6.23672258e-06
      2.14195234e-06 1.90808896e-05 1.61078478e-05 1.63286040e-05
      3.32856580e-05 3.32856580e-05 2.47974240e-05 2.62742906e-05
      3.54290678e-05 -7.11418068e-07 -1.01133955e-05 -1.71263091e-05
      1.72409291e-05 3.24374596e-05 3.42625317e-05 3.42625317e-05
      1.75882578e-05 1.75882578e-05 2.10455473e-05 6.19117709e-05
      5.15984539e-05 5.90320160e-05 6.22344087e-05 4.95394488e-05
      4.95394488e-05 7.84757276e-07 3.44345062e-05 3.44345062e-05
      4.29227475e-05 5.13014202e-05 6.15985118e-05 5.62310343e-05
      5.64517868e-05 5.64517868e-05 4.80731142e-05 3.70333873e-05
      3.70333873e-05 1.64848097e-05 -8.14497980e-06 3.16283804e-05
      1.72409291e-05 3.26582121e-05 -1.36640656e-05 -1.36640656e-05
      -3.03383404e-05 -3.03383404e-05 -5.47398558e-05 -2.55050436e-05
      1.08998656e-05 1.55791295e-05 2.88416550e-06 1.98596390e-05
      1.85120516e-05 3.27918897e-05 2.33899118e-05 -8.69050473e-06
      -8.69050473e-06 -1.42765502e-05 -3.34638844e-06 -1.74206946e-06
      2.28050267e-05 8.52518951e-06 8.52518951e-06 -1.08932118e-05
      -1.08932118e-05 1.84532255e-05 3.09274328e-05 3.16283804e-05
      3.44006221e-05 3.42625317e-05 4.10220110e-07 4.10220110e-07
      -1.62640554e-05 -4.94881497e-05 -7.51156113e-05 -3.62283390e-05
      -2.03640193e-05 -2.22998879e-05 -5.32441391e-06 -6.67200129e-06
      -1.60739783e-05 -1.39088943e-05 2.33935793e-06 2.33935793e-06
      3.48508947e-05 -5.41555710e-06 5.51460425e-06 2.37931981e-05
      2.40139543e-05 3.74684059e-05 2.31885679e-05 3.77016681e-06
      3.77016681e-06 5.00924471e-05 3.09274328e-05 3.16283804e-05
      3.44006221e-05 4.83368167e-05 4.10220110e-07 4.10220110e-07
      -3.52083116e-05 -3.38607242e-05 -6.25112443e-05 -5.31853912e-05
      -4.74280168e-05 -4.74280168e-05 -4.74280168e-05 -5.81775821e-05
      -6.13799784e-05 -6.13799784e-05 -5.60124972e-05 -4.40447548e-05
      -4.40447548e-05 -3.32856580e-05 -3.12774428e-05 -2.96731214e-05
      -2.94523670e-05 1.47506682e-06 5.15426909e-05 1.78444516e-05
      5.16967666e-05 5.00924471e-05 4.04697130e-05 3.11460753e-05
      7.33559136e-05 1.47976716e-05 4.10220110e-07 4.10220110e-07
      -3.52083116e-05 -3.19337632e-05 -1.11265930e-04 -9.76595766e-05
      -9.76595766e-05 -5.10805621e-05 -6.04825400e-05 -1.49302450e-05
      -1.49302450e-05 -3.19057181e-05 -3.19057181e-05 -2.65382369e-05
      4.36562317e-07 1.26725245e-05 3.20909276e-05 1.62850611e-05
      2.90030403e-05 4.94016640e-05 8.81624946e-05 6.33766103e-05
      5.16967666e-05 5.00924471e-05 3.93428818e-05 5.41067675e-05
      4.52458880e-05 3.46142442e-05 3.59618316e-05 3.09763564e-05
      -6.61059084e-06 -1.21171897e-05 -6.91064051e-05 -1.02847451e-04
      -5.49208562e-05 -6.56704215e-05 -6.88728178e-05 -8.58482890e-05
      -1.05664862e-04 -5.69101721e-05 -5.69101721e-05 -5.69101721e-05
      -5.15426909e-05 -2.31885679e-05 -2.29330021e-06 2.29361503e-05
      -1.18665803e-05 2.16855151e-05 6.83459220e-05 4.35600414e-05
      3.50224909e-05 5.00924471e-05 3.61404855e-05 5.35207482e-06
      3.09660500e-05 3.46142442e-05 4.53638095e-05 4.53638095e-05
      2.76535320e-05 1.89445364e-05 -5.08472585e-05 -8.08057011e-05
      -4.89961458e-05 -5.21985421e-05 -6.91740133e-05 -6.91740133e-05
      -6.91740133e-05 -8.89905859e-05 -5.69101721e-05 -5.69101721e-05
      -5.69101721e-05 -3.74684059e-05 -3.77016681e-06 2.27162800e-05
      3.54112453e-05 5.32964759e-06 2.62423200e-05 5.50353398e-05
      4.96678585e-05 4.06904692e-05 3.61404855e-05 2.23091301e-05
      4.25556245e-05 6.36779805e-05 7.30799584e-05 7.62823547e-05
      5.73380967e-05 6.56045740e-05 4.00110366e-05 -2.57698484e-05
      -5.80215383e-05 -7.49970131e-05 -7.49970131e-05 -7.49970131e-05
      -7.49970131e-05 -7.49970131e-05 -8.57561099e-05 -5.13888663e-05
      -8.50201977e-05 -5.69101721e-05 -7.30043894e-06 1.17861127e-05
      1.17861127e-05 4.16773037e-05 1.18668704e-05 1.27606663e-05
      3.80782840e-05 5.02147705e-05 3.61404855e-05 3.32392992e-05
      4.73110094e-06 5.64377006e-05 8.72125238e-05 8.72125238e-05
      8.52437370e-05 7.65347431e-05 5.15302963e-05 3.91764115e-05
      -1.27806743e-05 -4.94034648e-05 -4.94034648e-05 -4.94034648e-05
      -6.20984283e-05 -6.20984283e-05 -6.20984283e-05 -7.49970131e-05
      -4.29165957e-05 -8.50201977e-05 -1.81723281e-05 1.17861127e-05
      2.89823420e-05 4.16773037e-05 6.06215617e-05 1.12837997e-05
      -1.19129493e-06 1.96391029e-05 -1.14106560e-05 3.32392992e-05
      -3.64757352e-06 1.70849853e-05 7.44095523e-05 1.05664862e-04
      8.67206036e-05 8.64998510e-05 4.22575977e-05 4.06532781e-05
      3.74508818e-05 -2.82792807e-05 -4.79265982e-05 -4.79265982e-05
      -4.79265982e-05 -4.79265982e-05 -4.79265982e-05 -6.25899775e-05
      -9.16712888e-05 -7.06327482e-05 -7.14664056e-05 -5.04203235e-05
      -1.89442562e-05 -6.24929362e-06 6.06215617e-05 5.34234744e-07
      -1.95350767e-05 1.39688009e-05 -1.14106560e-05 3.32392992e-05
      4.56266134e-05 2.02873816e-05 3.72628529e-05 1.05664862e-04
      8.67206036e-05 8.64998510e-05 4.22575977e-05 3.74508818e-05
      2.04754106e-05 2.04754106e-05 -3.36467601e-05 -4.79265982e-05
      -4.79265982e-05 -4.79265982e-05 -4.79265982e-05 -6.25899775e-05
      -7.92642531e-05 -1.03562787e-04 -3.53896939e-05 -3.88123299e-05
      -1.91650124e-05 -6.24929362e-06 3.29298609e-06 -1.87069836e-05
      -6.74616749e-05 1.68098995e-05 -2.83741724e-06 3.32392992e-05
      4.65403500e-05 6.82139798e-05 8.51894511e-05 8.51894511e-05
      1.34647198e-04 1.34426446e-04 8.69818032e-05 8.53774836e-05
      6.84020051e-05 6.84020051e-05 6.84020051e-05 1.42798372e-05 0. 0.
      0. -6.25899775e-05 -8.83312605e-05 -9.35976786e-05 -1.84142191e-05
      -2.44248768e-05 -1.91650124e-05 -1.56512706e-05 -1.25699751e-06
      -1.87069836e-05 -3.56824567e-05 -3.11166987e-05 1.68098995e-05
      4.39888609e-05 4.71912572e-05 8.35851315e-05 8.51894511e-05
      8.51894511e-05 8.51894511e-05 1.25024468e-04 8.69818032e-05
      7.00063247e-05 6.84020051e-05 6.84020051e-05 6.84020051e-05
      6.84020051e-05 1.96473175e-05 0. -1.96841552e-06 -4.04046623e-05
      -3.72022660e-05 -9.35976786e-05 -6.40877261e-05 -3.88123299e-05
      -1.58720250e-05 -2.02012543e-05 7.11418068e-07 -1.87069836e-05
      -3.56824567e-05 -3.11166987e-05 -3.11166987e-05 2.99145759e-05
      4.71912572e-05 7.52064589e-05 8.51894511e-05 8.51894511e-05
      8.51894511e-05 5.20724789e-05 8.36824402e-05 5.01897557e-05
      4.85854362e-05 3.19111605e-05 3.19111605e-05 3.19111605e-05
      1.49541056e-05 -4.84639640e-05 -4.71163767e-05 -4.88994556e-05
      -4.04112143e-05 -2.32646744e-05 -6.95869530e-05 -2.99463118e-05
      -2.02012543e-05 -1.82328386e-05 1.20397499e-05 -1.58658841e-05
      1.61611260e-05 1.76379926e-05 -2.05783581e-05 3.31169722e-05
      6.41667284e-05 6.67182176e-05 7.68107784e-05 8.51894511e-05
      6.85151754e-05 1.69292198e-05 -1.39384099e-06 5.29338831e-05
      5.03823940e-05 2.60119505e-05 2.40435347e-05 1.26961586e-05
      5.14108069e-06 5.14108069e-06 8.34347702e-06 1.92736388e-05
      3.62491119e-05 2.70943347e-05 -2.99463118e-05 -1.72196123e-05
      -1.82328386e-05 -1.82328386e-05 -4.93572315e-06 1.77654456e-05
      1.61611260e-05 2.83970876e-05 4.25637845e-05 -2.78433913e-06
      4.52412605e-05 2.54246897e-05 2.79761753e-05 4.64474106e-05
      2.97731349e-05 2.95523805e-05 -9.56974691e-06 -2.22647104e-05
      1.77831753e-05 1.51240747e-05 6.74539979e-06 9.94779566e-06
      9.94779566e-06 9.94779566e-06 1.01188616e-05 2.70943347e-05
      3.97892982e-05 3.77968609e-05 -1.14773266e-05 1.58373325e-06
      1.56531485e-06 2.05095712e-05 1.77654456e-05 1.61611260e-05
      2.69202210e-05 3.91065005e-05 3.92141155e-05 1.06543766e-05
      1.36020408e-05 3.25462970e-05 3.25462970e-05 2.43386894e-05
      2.45313295e-05 2.61356472e-05 2.59148928e-05 -1.00048373e-05
      -1.00048373e-05 1.02881168e-05 1.56555980e-05 1.56555980e-05
      2.99354342e-05 4.69109073e-05 4.69109073e-05 4.86757017e-05
      5.34063256e-05 4.24574773e-06 4.46650256e-06 1.56531485e-06
      3.71838469e-05 2.85245405e-05 2.69202210e-05 1.26403847e-05
      3.23697677e-05 3.38466343e-05 1.97723493e-05 -1.14425638e-05
      -1.81983228e-06 3.25462970e-05 2.17872021e-05 2.17872021e-05
      2.17872021e-05 1.61526550e-05 2.45313295e-05 2.61356472e-05
      6.97063615e-06 -7.41681515e-06 -7.41681515e-06 4.13378766e-05
      5.25559735e-05 5.12083861e-05 3.62437204e-05 6.98750518e-05
      2.07144712e-05 2.09352274e-05 1.55677462e-05 9.04828994e-06
      7.27290444e-06 7.27290444e-06 2.16603567e-05 2.16603567e-05
      3.38466343e-05 3.38466343e-05 0. 5.51449057e-06 5.51449057e-06
      2.31513113e-05 2.78140888e-05 2.63372222e-05 2.63372222e-05
      2.63372222e-05 -2.15893760e-05 -2.15893760e-05 -2.18101304e-05
      -2.18101304e-05 -2.18101304e-05 -6.26926521e-07 -1.97451391e-06
      -1.13764909e-05 -1.78963164e-05 2.76559786e-05 3.86358297e-05
      3.86358297e-05 2.16603567e-05 2.16603567e-05 2.16603567e-05
      3.40673905e-05 3.40673905e-05 3.30185430e-05 3.30185430e-05 0. 0.
      0. -8.61807348e-06 1.03261837e-05 9.07007234e-06 1.42083354e-05
      1.42083354e-05 -1.96439760e-05 -1.96439760e-05 -1.96439760e-05
      -1.96439760e-05 -1.96439760e-05 -1.76755620e-05 -2.08779566e-05
      -2.08779566e-05 -2.08779566e-05 -2.08779566e-05 -1.01188616e-05
      -2.70943347e-05 -2.70943347e-05 -2.70943347e-05 -2.70943347e-05
      -1.46873008e-05 -1.46873008e-05 3.30185430e-05 1.89442562e-05
      1.89442562e-05 0. 0. -1.09301673e-05 -1.09301673e-05
      -4.18812924e-05 -2.44139028e-05 -2.44139028e-05 -2.44139028e-05
      -2.41931466e-05 -2.41931466e-05 -2.41931466e-05 -2.41931466e-05
      -2.41931466e-05 -2.41931466e-05 -2.41931466e-05 -4.11686196e-05
      -4.11686196e-05 -3.02384524e-05 -3.02384524e-05 -2.87615858e-05
      -2.87615858e-05 1.89442562e-05 1.89442562e-05 1.89442562e-05
      1.89442562e-05 1.89442562e-05 1.89442562e-05 0. 0. 0. 0. 0.
      -4.79265982e-05 -4.79265982e-05 -4.79265982e-05 -4.79265982e-05
      -4.79265982e-05 -2.87615858e-05 -2.87615858e-05 -2.87615858e-05
      -2.87615858e-05 -2.87615858e-05 -2.87615858e-05 -2.87615858e-05
      -2.87615858e-05 -2.87615858e-05 -2.87615858e-05 -2.87615858e-05
      1.91650124e-05 1.89442562e-05 1.89442562e-05 1.89442562e-05
      1.89442562e-05 0. 0. 0. 0. 0. 0. 0. 0. 0. 0. 0. 0. 0.
      1.89442562e-05 1.89442562e-05 1.89442562e-05 1.89442562e-05
      1.89442562e-05 1.89442562e-05 1.89442562e-05 1.89442562e-05
      1.89442562e-05 1.89442562e-05 1.89442562e-05 1.89442562e-05
      1.89442562e-05 1.89442562e-05 0. 0. 0. 0. 0. 0.</_>
    <_>
      0. 0. 0. 0. 0. 0. 2.15434966e-06 1.26514469e-05 1.64456887e-05
      1.64456887e-05 1.61368152e-05 4.36736809e-06 4.36736809e-06
      -2.18690711e-05 -2.22917224e-05 -2.48313336e-05 -2.31363319e-05
      -7.28072991e-05 -4.75166162e-05 -4.75166162e-05 2.15434966e-06
      2.15434966e-06 0. 0. 0. 0. 0. 0. 0. 0. 0. 0. 1.04970968e-05
      1.68309507e-05 1.89852999e-05 3.58195284e-05 4.96261600e-05
      2.04552871e-05 2.04552871e-05 2.04552871e-05 -4.27506347e-06
      -5.54521175e-05 -4.98939517e-05 -4.98939517e-05 -3.77018514e-05
      -4.32600209e-05 -1.41750952e-05 -1.41750952e-05 -2.52474365e-05
      -8.39654490e-07 8.05549007e-06 -4.40460690e-06 -4.40460690e-06
      -4.40460690e-06 0. 0. 0. 0. 0. 1.26514469e-05 1.89852999e-05
      2.10595881e-05 2.67395171e-05 2.72222351e-05 -1.94863833e-06
      -1.94863833e-06 -1.94863833e-06 -3.10335636e-05 -8.07045290e-05
      -7.22978730e-05 -6.49207577e-05 -6.49207577e-05 -5.27286611e-05
      -5.27286611e-05 -2.92019049e-05 -3.36065132e-05 -3.36065132e-05
      9.92193054e-06 2.72893067e-05 1.75869554e-05 5.12685892e-06
      2.97250926e-06 -4.40460690e-06 0. 0. 0. 1.26514469e-05
      -7.21286870e-06 6.17813066e-06 1.41153560e-05 -5.12594534e-06
      -1.17598756e-05 -4.08447995e-05 -4.08447995e-05 -9.05157649e-05
      -6.77692442e-05 -6.49207577e-05 -6.49207577e-05 -6.54695104e-05
      -3.60916565e-05 -4.34798276e-05 -1.87995101e-05 3.08714552e-05
      3.08714552e-05 3.14202043e-05 3.88083754e-05 2.42225888e-05
      6.64930531e-06 -2.12097857e-05 1.75869554e-05 1.00723264e-05
      7.37711616e-06 0. 1.04970968e-05 -7.21286870e-06 2.79109609e-05
      5.89033662e-05 4.62436437e-05 3.40515471e-05 1.21066669e-05
      4.96662233e-06 -3.73272269e-05 -2.54847946e-05 -6.19496204e-05
      -3.95456918e-05 -4.49892032e-05 -1.59042775e-05 -1.29420168e-05
      2.11263159e-05 6.24536824e-06 1.53998917e-05 4.26261067e-05
      5.00142742e-05 5.00142742e-05 5.00142742e-05 5.67987945e-06
      9.61180194e-06 -1.38426813e-05 1.15938101e-05 -1.80520401e-05 0.
      5.67311690e-05 3.45257940e-05 5.83576330e-05 5.33836901e-05
      5.62557179e-05 2.71707922e-05 2.92025888e-05 -1.52456105e-05
      -1.92971565e-05 -2.02712931e-06 8.29550027e-06 1.02401600e-05
      1.02401600e-05 -2.74960275e-05 2.18361874e-05 4.14320857e-05
      9.80880395e-06 1.96939127e-05 3.40910774e-05 2.45851188e-05
      2.45851188e-05 2.45851188e-05 2.45851188e-05 5.67987945e-06
      -6.99328029e-06 2.33856699e-05 2.45628689e-05 4.58114228e-05
      4.68924409e-05 5.70664015e-05 6.28896451e-05 2.71707922e-05
      -2.25001731e-05 -1.66741338e-05 7.27995757e-06 3.13176170e-05
      4.39674295e-05 4.68911057e-05 1.81956402e-05 3.71890310e-05
      2.98119157e-05 1.08567809e-04 1.08567809e-04 6.13425946e-05
      4.72074062e-05 4.33138375e-05 3.25613764e-05 3.01177788e-05
      3.96492433e-05 4.40538497e-05 4.40538497e-05 3.60388512e-05
      5.78185754e-05 5.43729948e-05 3.57687677e-05 3.66900640e-05
      3.25770779e-05 7.76730958e-05 1.06570224e-04 2.92281256e-05
      2.92281256e-05 2.70737764e-05 3.27078669e-05 6.31614910e-07
      2.70638466e-05 3.90520545e-05 2.21484479e-05 1.47713317e-05
      2.69634293e-05 3.03606630e-05 1.23196769e-05 3.95458919e-05
      3.95458919e-05 3.58561010e-05 6.13772063e-05 1.24429789e-04
      1.29987951e-04 1.20460107e-04 1.13220281e-04 7.97761240e-05
      5.78185754e-05 5.65273440e-05 3.57687677e-05 2.55373270e-05
      5.59790387e-05 1.01012061e-04 2.92281256e-05 2.92281256e-05
      2.70737764e-05 2.38616813e-05 -9.04656008e-06 -1.64712037e-05
      2.03130967e-05 1.32132800e-05 -6.56364932e-07 -8.03348121e-06
      -1.39123804e-05 -3.05493850e-05 -4.44675237e-07 -1.80166353e-05
      -5.82453731e-06 2.16513345e-05 5.68039468e-06 1.72822474e-05
      4.82695723e-05 1.62794226e-04 1.64948578e-04 1.36175484e-04
      5.82412285e-05 5.65273440e-05 3.85090789e-05 4.27558043e-05
      7.81859271e-05 2.92281256e-05 2.92281256e-05 2.92281256e-05
      1.64845660e-05 1.39339027e-05 -5.92625875e-05 -6.18432969e-05
      -6.73209506e-05 -7.88570978e-05 -9.98667892e-05 -7.94845255e-05
      -6.94440605e-05 -7.29611711e-05 -7.29611711e-05 -6.55729964e-05
      -5.97469625e-05 -3.88634498e-06 3.92997208e-05 4.21656696e-05
      5.56466875e-05 8.40383364e-05 1.64948578e-04 1.42001518e-04
      7.01521130e-05 5.69499934e-05 3.11319636e-05 6.18863414e-05
      6.40199232e-06 2.92281256e-05 3.66052409e-05 2.60160323e-05
      1.64735138e-05 9.52929622e-06 -4.80566887e-05 -1.06331769e-04
      -1.28592612e-04 -1.89508399e-04 -1.89508399e-04 -2.17900044e-04
      -1.90673833e-04 -1.44862410e-04 -1.37722367e-04 -1.30334200e-04
      -1.30334200e-04 -2.41570015e-05 1.70691565e-05 2.47946300e-05
      -3.95733110e-07 5.72298086e-05 8.17880791e-05 7.83097566e-05
      8.57414489e-05 7.34279092e-05 3.11319636e-05 -1.30100079e-05
      -7.38052222e-07 2.92281256e-05 2.60160323e-05 1.42232557e-05
      1.20689065e-05 9.52929622e-06 -4.67426835e-05 -1.07745560e-04
      -1.82408578e-04 -1.10752502e-04 -1.39144162e-04 -1.39144162e-04
      -1.39144162e-04 -1.39144162e-04 -9.33327319e-05 -8.61926892e-05
      -1.15277617e-04 -1.05395986e-04 -5.83437868e-05 -2.84205416e-05
      2.74383110e-05 2.78108091e-05 4.24053833e-05 5.94659869e-05
      5.40136425e-05 7.34279092e-05 3.11319636e-05 -2.35071057e-05
      -7.38052222e-07 8.83027951e-06 1.86278630e-05 1.42232557e-05
      1.20689065e-05 -4.69395991e-06 -2.63604161e-05 -1.40551827e-04
      -9.85604056e-05 -1.26952058e-04 -1.26952058e-04 -1.26952058e-04
      -1.26952058e-04 -1.26952058e-04 -1.26952058e-04 -8.11406353e-05
      -1.15277617e-04 -1.15277617e-04 -5.23804592e-05 -2.66041934e-05
      2.00915474e-06 1.32150544e-05 -2.66705570e-06 2.40199115e-05
      3.84562954e-05 3.76094104e-05 3.25457513e-05 -7.25921127e-05
      -7.43244382e-05 1.14878185e-05 1.42232557e-05 1.42232557e-05
      -2.15434966e-06 -4.69395991e-06 -7.64070573e-05 -8.57966370e-06
      -8.83237517e-05 -1.16715404e-04 -7.73327047e-05 -7.29781314e-05
      -7.29781314e-05 -7.24293786e-05 -7.29781314e-05 -1.02585116e-04
      -7.37524679e-05 -8.61926892e-05 -3.90032037e-05 -2.66041934e-05
      -2.15434966e-06 -2.15434966e-06 1.53694036e-05 -8.80710468e-06
      -1.51840959e-06 1.62260294e-05 -9.86669966e-06 -7.25921127e-05
      -6.45268519e-05 -3.87282125e-05 1.42232557e-05 -1.69406589e-20
      -2.15434966e-06 -2.15434966e-06 -6.93295442e-05 6.78974084e-06
      7.01635599e-06 -3.41883351e-05 -2.98337618e-05 -2.98337618e-05
      -2.54291554e-05 -2.54291554e-05 -2.54291554e-05 -4.07985608e-05
      -7.04055419e-05 -5.67736934e-05 -6.75332558e-06 -2.66041934e-05
      -2.15434966e-06 -2.15434966e-06 -1.69406589e-20 -5.69827826e-05
      -3.84341147e-05 -3.08439303e-05 -1.42713070e-05 -6.34573153e-05
      -6.15543468e-05 -3.87282125e-05 -5.29514655e-05 -1.69406589e-20
      -2.15434966e-06 6.94135451e-07 -6.19413768e-05 6.60588557e-05
      4.41273951e-05 2.75223119e-05 -2.54291554e-05 -2.54291554e-05 0.
      0. -2.54291554e-05 -2.54291554e-05 -2.54291554e-05 1.57888280e-05
      -3.86721804e-05 -1.62261240e-05 -2.15434966e-06 -2.15434966e-06
      -1.69406589e-20 -1.52600478e-05 -8.20811620e-05 -7.86307428e-05
      -9.75149669e-06 -6.90154848e-05 -6.40939543e-05 -6.41573642e-05
      -5.29514655e-05 -5.29514655e-05 -2.15434966e-06 6.94135451e-07
      2.54528986e-05 3.51885974e-05 4.41273951e-05 7.39611569e-05
      5.29514655e-05 0. 0. 0. 0. 0. 2.83868048e-05 -1.15011753e-05
      2.00826926e-05 -3.27978705e-06 -2.15434966e-06 -2.15434966e-06
      -7.37711616e-06 -1.52600478e-05 -6.46613917e-05 -8.72827513e-05
      -9.75149669e-06 9.44156727e-06 -9.62802224e-05 -5.42427006e-05
      -5.29514655e-05 -5.29514655e-05 -5.29514655e-05 6.94135451e-07
      -2.56808034e-05 -1.80534280e-05 -4.79473374e-06 7.39611569e-05
      5.29514655e-05 5.29514655e-05 0. 0. 0. 7.37711616e-06
      2.83868048e-05 -9.95209666e-06 -1.62287306e-05 9.96696144e-06
      -2.15434966e-06 -9.53146628e-06 -7.37711616e-06 -1.52600478e-05
      -8.06733806e-05 -1.07905042e-04 -2.48156230e-05 -2.63115307e-05
      -6.24285713e-06 -1.75103032e-05 -5.29514655e-05 -5.29514655e-05
      -5.29514655e-05 -6.24829336e-05 -1.17415166e-05 -2.01857729e-05
      2.62191929e-06 -4.37208291e-06 -2.53817725e-05 -2.58044238e-05
      -2.58044238e-05 -7.87558893e-05 -7.13787740e-05 -5.63146496e-05
      -1.55795951e-05 -2.25559961e-05 -4.97182627e-05 -2.45732062e-05
      -9.53146628e-06 -9.53146628e-06 -9.91672641e-06 -5.87158247e-05
      -6.20936189e-05 -2.08918646e-05 -2.95268524e-06 -2.34630461e-05
      1.71251304e-05 4.18131494e-05 -4.33649948e-05 -5.29514655e-05
      -5.29514655e-05 -5.51058183e-05 -4.33563546e-05 -5.66611052e-05
      4.75776233e-06 -7.03056776e-06 -8.96956863e-06 -2.26021421e-05
      -7.23273706e-06 -7.23273706e-06 9.95301525e-06 2.91659817e-05
      4.08970918e-05 1.23545624e-05 -2.42848546e-05 -1.46880657e-05
      -9.53146628e-06 -9.53146628e-06 -3.83083789e-05 -3.95948118e-05
      -1.03947677e-05 2.42038041e-05 4.57072238e-05 -3.14434328e-05
      4.43405588e-05 4.55229892e-05 2.81628145e-05 -5.84291192e-05
      -5.29514655e-05 -5.29514655e-05 -4.03338126e-05 -4.21233672e-05
      -1.42339959e-05 2.19324611e-05 1.74097440e-05 1.74097440e-05
      1.74097440e-05 1.74097440e-05 1.83484590e-05 2.95543578e-05
      2.29520106e-06 -3.60051740e-06 -5.20364920e-05 -8.98271719e-06
      -2.07373650e-05 1.39021968e-05 1.00761536e-05 -1.03947677e-05
      2.88748633e-05 1.83777665e-05 6.26859983e-05 -2.82006094e-05
      3.08020062e-05 4.43405588e-05 1.82967760e-05 2.81628145e-05
      2.45131905e-05 2.58044238e-05 -2.75223119e-05 -4.09197710e-05
      -3.65651977e-05 -5.69827580e-06 -1.27980920e-05 -1.27980920e-05
      1.72766067e-05 -2.41728630e-05 -2.41728630e-05 -2.41728630e-05
      -3.09640200e-05 -3.80022198e-06 -3.80022198e-06 2.89336003e-05
      1.39021968e-05 3.24722896e-05 -1.03947677e-05 2.94608235e-05
      4.56039816e-05 5.28070377e-05 1.73324861e-05 -1.42232557e-05
      -1.61102253e-05 3.29563554e-05 4.43405588e-05 1.85389199e-05
      1.80980362e-06 3.60627055e-05 2.43958184e-05 1.07402975e-05
      2.36500746e-05 2.36500746e-05 -4.88610249e-06 4.80653653e-05
      5.24199386e-05 4.50428233e-05 4.06882500e-05 4.01395009e-05
      4.01395009e-05 4.01395009e-05 2.50753728e-05 2.33090959e-05
      2.26430875e-05 1.86901561e-05 3.52868628e-05 4.56039816e-05
      5.28070377e-05 6.89207736e-05 0. 1.12058997e-05 -1.42232557e-05
      -3.11416297e-05 3.29563554e-05 2.15357468e-05 2.45132996e-05
      -2.71291401e-06 9.19797276e-06 9.19797276e-06 1.80980362e-06
      1.80980362e-06 -4.26445258e-05 -3.95561656e-05 -4.69332845e-05
      -3.97932381e-05 -4.28815983e-05 2.92982486e-06 1.03179946e-05
      1.03179946e-05 1.10112660e-05 3.64404223e-05 3.08822564e-05
      3.52868628e-05 1.89637267e-05 5.58182728e-06 3.84787563e-05 0. 0.
      0. 1.12058997e-05 -1.20689065e-05 -3.11416297e-05 -1.89092316e-05
      -1.89092316e-05 2.27307537e-05 5.75197782e-06 5.75197782e-06
      5.75197782e-06 5.75197782e-06 5.75197782e-06 1.62490742e-05
      -1.09771390e-05 -1.09771390e-05 -2.81628909e-05 -2.73373553e-06
      2.78948119e-06 7.19408808e-06 7.19408808e-06 7.19408808e-06
      7.19408808e-06 2.64353894e-05 3.07899609e-05 -1.31497591e-05
      2.15434966e-06 0. 0. 0. 0. 1.12058997e-05 -1.20689065e-05
      -4.96908933e-06 -4.38312964e-06 -3.11416297e-05 -3.11416297e-05
      -3.16903788e-05 -3.16903788e-05 -3.45388617e-05 -3.45388617e-05
      -3.45388617e-05 -3.52476673e-05 -3.52476673e-05 -9.81851008e-06
      -9.81851008e-06 -2.03156069e-05 -2.03156069e-05 -1.74671222e-05
      -1.75043333e-05 -1.75043333e-05 9.25416680e-06 9.25416680e-06
      2.15434966e-06 0. 0. 0. 0. 0. 0. 0. 0. 7.09981668e-06
      -1.77433794e-05 5.48555226e-06 5.48555226e-06 4.93680363e-06
      4.93680363e-06 2.08831852e-06 2.08831852e-06 2.08831852e-06
      2.08831852e-06 2.08831852e-06 2.08831852e-06 2.08831852e-06
      2.08831852e-06 4.89959257e-06 4.89959257e-06 9.25416680e-06
      9.25416680e-06 0. 0. 0. 0. 0. 0. 0. 0. 0. 0. 0. 0. 0.
      2.15434966e-06 2.15434966e-06 9.25416680e-06 9.25416680e-06
      9.25416680e-06 9.25416680e-06 9.25416680e-06 9.25416680e-06
      9.25416680e-06 9.25416680e-06 9.25416680e-06 9.25416680e-06
      2.15434966e-06 2.15434966e-06 0. 0. 0. 0. 0. 0.</_>
    <_>
      -1.89406819e-05 -1.89406819e-05 -1.89406819e-05 -1.63799123e-05
      -1.63799123e-05 -1.63799123e-05 -1.24323060e-05 -1.24323060e-05
      -9.28027748e-06 -9.28027748e-06 -5.68337691e-06 -5.68337691e-06
      -5.68337691e-06 -5.68337691e-06 -5.68337691e-06 -9.28027748e-06
      -9.28027748e-06 -9.28027748e-06 -1.24323060e-05 -1.49930765e-05
      -1.49930765e-05 -1.49930765e-05 -1.89406819e-05 -1.89406819e-05
      -1.89406819e-05 -1.31953411e-05 0. 0. -1.89406819e-05
      -1.89406819e-05 -2.22450253e-05 -2.22450253e-05 -2.22450253e-05
      -1.54960962e-05 -1.15484900e-05 -1.15484900e-05 -1.15484900e-05
      -1.15484900e-05 -1.15484900e-05 -1.15484900e-05 -1.15484900e-05
      -1.15484900e-05 -1.15484900e-05 -1.15484900e-05 -1.15484900e-05
      -1.15484900e-05 -1.15484900e-05 -1.15484900e-05 -1.15484900e-05
      -1.77061611e-05 -2.48057968e-05 -2.48057968e-05 -2.48057968e-05
      -2.21954433e-05 0. 0. -1.89406819e-05 -2.22450253e-05
      -1.07638198e-05 -6.81621350e-06 -6.72847804e-08 -6.72847804e-08
      -6.72847804e-08 -6.72847804e-08 -6.72847804e-08 -6.72847804e-08
      -6.72847804e-08 -6.72847804e-08 -6.72847804e-08 -6.72847804e-08
      -6.72847804e-08 -6.72847804e-08 -1.15484900e-05 1.87536375e-06
      1.87536375e-06 1.87536375e-06 1.87536375e-06 1.87536375e-06
      -4.28230760e-06 -2.08581896e-05 -2.08581896e-05 -2.48057968e-05
      -9.00010127e-06 0. -9.04968329e-06 2.43152158e-06 4.90070715e-06
      -4.69773386e-06 -1.54570535e-06 -1.54570535e-06 -1.54570535e-06
      -4.10647635e-06 -4.10647635e-06 -4.10647635e-06 -4.10647635e-06
      9.08886432e-06 1.16496358e-05 2.50734902e-05 1.18781481e-05
      1.18781481e-05 1.18781481e-05 1.18781481e-05 3.96943193e-07
      3.96943193e-07 3.96943193e-07 3.96943193e-07 -3.19995706e-06
      -8.91275704e-06 -8.91275704e-06 -8.91275704e-06 1.81339897e-06
      -9.00010127e-06 4.84881593e-06 -9.19104514e-06 -1.64653829e-06
      1.17341015e-05 -1.46124023e-06 -1.46124023e-06 -4.02201158e-06
      1.15460728e-06 -4.02201158e-06 -4.02201158e-06 1.94451550e-05
      5.61964407e-06 5.61964407e-06 5.61964407e-06 -7.57569705e-06
      -3.97879694e-06 1.00685829e-05 4.32324123e-06 7.47526974e-06
      -4.00593581e-06 -4.00593581e-06 -4.00593581e-06 -4.00593581e-06
      -1.07548649e-05 -1.33156354e-05 -1.33156354e-05 -1.55545094e-05
      -1.24479202e-05 4.84881593e-06 8.38110009e-06 1.95210741e-05
      1.95210741e-05 1.95210741e-05 1.95210741e-05 1.69603027e-05
      1.38082742e-05 9.86066789e-06 6.26376732e-06 1.96876208e-05
      1.96876208e-05 1.96876208e-05 1.96876208e-05 9.45901047e-06
      1.57689992e-05 5.13443001e-06 6.12097665e-06 3.75635068e-07
      -4.00593581e-06 -4.00593581e-06 -4.00593581e-06 -4.00593581e-06
      -4.00593581e-06 -1.33156354e-05 -1.20294359e-07 -4.06790059e-06
      -1.24479202e-05 1.50774267e-05 2.96436247e-06 1.37375446e-06
      1.37375446e-06 1.37375446e-06 1.37375446e-06 -1.18701666e-06
      -2.33647570e-05 -2.33647570e-05 -9.94090260e-06 -9.94090260e-06
      -9.94090260e-06 6.72847804e-08 6.72847804e-08 -1.64685127e-06
      -1.50707046e-05 -2.52993159e-05 -3.30862895e-05 -3.59287187e-05
      -3.27766902e-05 -3.27766902e-05 -1.54052304e-05 -2.68864351e-05
      -2.68864351e-05 2.44047692e-06 -1.20294359e-07 -4.06790059e-06
      1.24625421e-05 1.21575231e-05 9.71873487e-06 1.72632426e-05
      1.72632426e-05 1.72632426e-05 1.72632426e-05 -7.26340829e-07
      -7.47526974e-06 5.94858420e-06 -7.47742263e-07 -7.47742263e-07
      1.07388660e-05 1.07388660e-05 -2.68498775e-06 -1.58803286e-05
      -4.39912355e-06 -5.87754448e-06 -2.66811603e-05 -3.07521004e-05
      -3.27766902e-05 -3.27766902e-05 -3.27766902e-05 -1.54052304e-05
      -1.36910940e-05 -2.04400221e-05 -5.71111059e-06 1.03582279e-05
      2.49104614e-05 2.94472065e-05 3.25992332e-05 1.72632426e-05
      1.72632426e-05 1.72632426e-05 1.33156354e-05 1.07548649e-05
      7.71965574e-07 7.71965574e-07 1.22585743e-05 1.22585743e-05
      1.74351935e-05 -9.18400292e-06 -9.18400292e-06 -9.18400292e-06
      -1.58803286e-05 -2.89746076e-05 -3.81677673e-05 -3.56069977e-05
      -3.90866808e-05 -3.10679570e-05 -3.10679570e-05 -6.15749423e-06
      -2.20988818e-06 -2.04400221e-05 -3.21559151e-06 2.32672519e-05
      1.54342142e-05 2.19136073e-05 4.01437392e-05 4.01437392e-05
      2.28540575e-05 2.28540575e-05 1.89064522e-05 2.05818178e-05
      -9.45664578e-06 2.02996307e-06 2.02996307e-06 2.02996307e-06
      -2.45892315e-05 -1.43606212e-05 -1.43606212e-05 -2.06706118e-05
      -4.04558123e-05 -4.96489738e-05 -3.81677673e-05 -3.81677673e-05
      -1.56627266e-05 -2.58913387e-05 -1.76441026e-05 -6.15749423e-06
      4.00465325e-07 2.65163771e-06 8.53833990e-06 2.32672519e-05
      1.54342142e-05 1.67369890e-05 4.01437392e-05 4.01437392e-05
      4.01437392e-05 5.35675936e-05 4.96199900e-05 4.34623180e-05
      2.49104614e-05 2.49104614e-05 2.49104614e-05 1.14866079e-05
      -1.70873295e-06 -1.31953411e-05 -3.60758422e-05 -5.48255921e-05
      -4.96489738e-05 -4.96489738e-05 -4.96489738e-05 -2.49724271e-05
      -1.56627266e-05 -1.56627266e-05 -1.24674843e-05 -3.54714075e-06
      1.85937279e-05 1.33232188e-05 2.58280234e-05 3.14188401e-05
      1.54342142e-05 6.50837728e-06 2.34859162e-05 4.01437392e-05
      5.35675936e-05 5.35675936e-05 4.96199900e-05 4.34623180e-05
      4.15682844e-05 1.17151212e-05 -1.70873295e-06 -1.89984148e-05
      -3.04850237e-05 -3.04850237e-05 -6.50542061e-05 -6.50542061e-05
      -5.48255921e-05 -4.96489738e-05 -3.64536318e-05 -3.64536318e-05
      -1.56627266e-05 -2.23887309e-06 1.76611629e-05 3.71124224e-05
      4.40581571e-05 4.09061286e-05 4.64969453e-05 1.79949857e-05
      1.54342142e-05 6.50837728e-06 2.34859162e-05 4.01437392e-05
      5.35675936e-05 5.35675936e-05 4.96199900e-05 5.75096965e-05
      3.86015563e-05 2.31963259e-05 -1.89984148e-05 -3.04850237e-05
      -3.04850237e-05 -6.50542061e-05 -6.50542061e-05 -6.50542061e-05
      -6.50542061e-05 -4.16302501e-05 -3.64536318e-05 -3.64536318e-05
      -7.08768903e-06 7.00387000e-06 4.25507533e-05 6.11065989e-05
      5.48255921e-05 4.64969453e-05 4.64969453e-05 1.79949857e-05
      1.54342142e-05 6.50837728e-06 1.32573059e-05 2.34859162e-05
      5.35675936e-05 5.35675936e-05 6.11065989e-05 4.43143545e-05
      2.13118728e-05 7.88801935e-06 -1.45864478e-05 -3.75542622e-05
      -5.93088625e-05 -6.50542061e-05 -6.50542061e-05 -6.50542061e-05
      -5.18588604e-05 -5.18588604e-05 -4.16302501e-05 -9.97078860e-06
      1.28123474e-05 4.13138769e-05 6.11065989e-05 6.11065989e-05
      6.50542061e-05 5.16735636e-05 3.30730909e-05 1.79949857e-05
      6.50837728e-06 6.50837728e-06 1.32573059e-05 2.66811603e-05
      4.20863907e-05 4.77645190e-05 3.06215734e-05 3.06215734e-05
      7.88801935e-06 2.29720285e-06 8.18782155e-07 -4.52173044e-05
      -6.50542061e-05 -6.50542061e-05 -6.50542061e-05 -5.18588604e-05
      -5.18588604e-05 -3.45691806e-05 -2.53760190e-05 -1.25370534e-05
      2.31363447e-05 3.55780139e-05 6.11065989e-05 6.11065989e-05
      6.50542061e-05 3.82497092e-05 3.46528104e-05 2.94761903e-05
      6.50837728e-06 3.94760627e-06 1.32573059e-05 2.66811603e-05
      3.81677673e-05 4.77645190e-05 3.06215734e-05 2.50307567e-05
      2.29720285e-06 2.29720285e-06 -2.65573126e-05 -3.55574157e-05
      -5.35729996e-05 -6.50542061e-05 -5.18588604e-05 -5.18588604e-05
      -3.45691806e-05 -2.53760190e-05 -2.27656656e-05 9.82185838e-07
      3.04013938e-05 4.70646191e-05 5.85458256e-05 6.11065989e-05
      5.16303480e-05 4.48814208e-05 3.46528104e-05 1.79895833e-05
      6.50837728e-06 3.94760627e-06 2.30842597e-05 2.66811603e-05
      3.81677673e-05 2.08780857e-05 2.50307567e-05 2.50307567e-05
      4.85797409e-06 -5.81360746e-06 -2.98120740e-05 -3.55574157e-05
      -3.81677673e-05 -4.03776576e-05 -5.18588604e-05 -3.45691806e-05
      -1.97852023e-05 -1.97852023e-05 4.42375267e-06 1.12754124e-05
      4.18880009e-05 4.70646191e-05 5.85458256e-05 4.76827445e-05
      5.16303480e-05 4.48814208e-05 3.33948119e-05 2.31662016e-05
      1.79895833e-05 1.73714598e-05 1.99322312e-05 3.81677673e-05
      2.49724271e-05 2.09192785e-06 2.09192785e-06 1.16069032e-05
      -5.81360746e-06 -2.39965430e-05 -2.98120740e-05 -3.81677673e-05
      -3.81677673e-05 -2.49724271e-05 -2.30879741e-05 -2.89783620e-05
      -1.97852023e-05 1.81339897e-06 4.42375267e-06 1.12754124e-05
      3.16593905e-05 4.18880009e-05 4.51219712e-05 4.76827445e-05
      5.16303480e-05 4.48814208e-05 3.33948119e-05 2.31662016e-05
      1.79895833e-05 1.73714598e-05 1.73714598e-05 3.81677673e-05
      1.93816104e-05 2.09192785e-06 2.09192785e-06 -1.52795328e-05
      -1.05512872e-05 -2.39965430e-05 -3.24224275e-05 -3.81677673e-05
      -3.81677673e-05 -2.49724271e-05 -2.09192785e-06 -1.74971574e-05
      -8.30399676e-06 1.32946043e-05 1.95018583e-05 4.31405970e-05
      4.31405970e-05 3.99453529e-05 4.51219712e-05 4.76827445e-05
      4.80334493e-05 3.33948119e-05 3.33948119e-05 3.33948119e-05
      2.31662016e-05 1.73714598e-05 2.88580686e-05 3.20100953e-05
      1.93816104e-05 2.09192785e-06 2.09192785e-06 -1.67579528e-05
      -3.74377232e-05 -1.72476139e-05 -2.62647554e-05 -3.45708686e-05
      -2.13755266e-05 -4.08584401e-06 1.49288262e-05 1.49288262e-05
      2.56004078e-05 3.02721437e-05 4.43691060e-05 5.33692073e-05
      3.99453529e-05 3.99453529e-05 4.51219712e-05 4.76827445e-05
      3.65468404e-05 3.33948119e-05 3.33948119e-05 3.33948119e-05
      3.33948119e-05 1.34238535e-05 2.88580686e-05 1.56627266e-05
      -1.50497249e-06 2.09192785e-06 2.09192785e-06 6.13507211e-07
      -2.40138688e-05 -3.07101946e-05 -2.11700790e-05 -1.85862427e-05
      9.33801039e-06 9.33801039e-06 1.49288262e-05 1.49288262e-05
      3.54487638e-05 4.69353727e-05 5.28004857e-05 4.51219712e-05
      4.51219712e-05 4.51219712e-05 3.36353623e-05 4.01437392e-05
      3.33948119e-05 3.33948119e-05 3.33948119e-05 3.33948119e-05
      2.19136073e-05 2.49104614e-05 2.49104614e-05 1.56627266e-05
      1.00719108e-05 1.57847098e-05 2.09192785e-06 6.13507211e-07
      -8.57965370e-06 -3.07101946e-05 -3.65753076e-05 -9.62573722e-06
      3.56960436e-06 6.59964962e-06 1.80808547e-05 2.95674636e-05
      4.69353727e-05 5.01901304e-05 3.93766313e-05 4.51219712e-05
      4.51219712e-05 3.36353623e-05 3.75829695e-05 3.33948119e-05
      3.33948119e-05 2.19136073e-05 2.19136073e-05 2.19136073e-05
      2.19136073e-05 1.14866079e-05 2.49104614e-05 1.56627266e-05
      1.56627266e-05 1.82234980e-05 1.82234980e-05 1.93816104e-05
      8.71002885e-06 2.01370267e-06 4.02153375e-07 -7.95354208e-06
      5.24179950e-06 2.06470286e-05 2.06470286e-05 2.98401901e-05
      2.45910833e-05 2.52850714e-05 2.78954249e-05 3.36407684e-05
      3.62015380e-05 2.50656358e-05 2.19136073e-05 2.19136073e-05
      2.19136073e-05 2.19136073e-05 2.19136073e-05 2.19136073e-05
      2.56077124e-06 1.14866079e-05 1.14866079e-05 1.56627266e-05
      1.56627266e-05 1.56627266e-05 1.82234980e-05 1.26326822e-05
      1.11542613e-05 8.55590372e-07 -2.39916926e-06 5.05083062e-06
      2.44047692e-06 6.03737726e-06 1.52305383e-05 6.98330268e-06
      1.15611492e-05 2.50445210e-05 2.50941030e-05 3.08394447e-05
      2.19136073e-05 2.19136073e-05 2.19136073e-05 2.19136073e-05
      2.19136073e-05 1.16849960e-05 1.16849960e-05 2.56077124e-06
      2.56077124e-06 0. 1.14866079e-05 2.23887309e-06 2.23887309e-06
      2.23887309e-06 2.23887309e-06 3.32122386e-06 3.32122386e-06
      3.32122386e-06 9.82023812e-06 8.20137302e-07 -1.79021629e-06
      -1.79021629e-06 -1.79021629e-06 -1.79021629e-06 6.38453093e-06
      9.63929051e-06 7.63035757e-07 6.50837728e-06 6.50837728e-06
      6.50837728e-06 6.50837728e-06 6.50837728e-06 6.50837728e-06
      6.50837728e-06 6.50837728e-06 0. 0. 0. 0. 1.14866079e-05
      2.23887309e-06 2.23887309e-06 2.23887309e-06 2.23887309e-06
      2.23887309e-06 2.23887309e-06 1.79949857e-05 1.65165657e-05
      1.65165657e-05 6.38453093e-06 -5.10207747e-06 -5.10207747e-06
      -1.84731789e-06 7.63035757e-07 7.63035757e-07 6.50837728e-06
      6.50837728e-06 6.50837728e-06 6.50837728e-06 6.50837728e-06
      6.50837728e-06 6.50837728e-06 0. 0. 0. 0. 0. 0. 0. -1.31953411e-05
      -1.31953411e-05 -1.31953411e-05 3.94760627e-06 3.94760627e-06
      3.94760627e-06 6.50837728e-06 6.50837728e-06 -5.10207747e-06
      -5.10207747e-06 -1.84731789e-06 -1.84731789e-06 7.63035757e-07
      7.63035757e-07 6.50837728e-06 6.50837728e-06 6.50837728e-06
      6.50837728e-06 6.50837728e-06 2.56077124e-06 0. 0. 0. 0. 0. 0. 0.
      0. 0. -1.31953411e-05 0. 0. 3.94760627e-06 3.94760627e-06
      3.94760627e-06 3.94760627e-06 -1.79773542e-06 7.63035757e-07
      7.63035757e-07 7.63035757e-07 7.63035757e-07 7.63035757e-07
      6.50837728e-06 6.50837728e-06 6.50837728e-06 3.94760627e-06 0. 0.
      0. 0. 0. 0.</_>
    <_>
      0. 0. 0. 0. 0. 0. -3.32190975e-05 -3.32190975e-05 -2.34674208e-05
      -2.34674208e-05 -2.34674208e-05 -2.34674208e-05 -2.34674208e-05
      -2.34674208e-05 -5.71273195e-05 -2.34674208e-05 -2.34674208e-05
      9.75167586e-06 0. 0. 0. 0. 0. 0. 0. 0. 0. 0. 0. 0. 0. 0.
      -3.32190975e-05 -1.68490424e-05 -2.34674208e-05 -2.34674208e-05
      9.23739026e-06 9.23739026e-06 -2.44225103e-05 -2.44225103e-05
      -2.44225103e-05 -2.44225103e-05 -2.44225103e-05 -2.44225103e-05
      -2.44225103e-05 -2.44225103e-05 -2.44225103e-05 8.79658728e-06
      8.79658728e-06 -2.39082237e-05 -3.36599005e-05 -3.36599005e-05
      -3.36599005e-05 0. 0. 0. 0. 0. 0. -3.32190975e-05 -1.68490424e-05
      -1.58220973e-05 1.68827137e-05 1.68827137e-05 1.68827137e-05
      1.68827137e-05 -1.67771850e-05 -1.67771850e-05 -1.67771850e-05
      -2.44225103e-05 -2.10895778e-05 -2.10895778e-05 -2.10895778e-05
      -2.10895778e-05 -7.48619686e-06 -2.10895778e-05 -2.10895778e-05
      1.21295188e-05 1.21295188e-05 -3.03269680e-05 -3.03269680e-05
      -3.03269680e-05 0. 0. 0. 0. -2.55737723e-05 -2.55737723e-05
      -1.58220973e-05 1.68827137e-05 -5.30790339e-06 -3.89678025e-05
      -3.89678025e-05 -3.89678025e-05 -3.89678025e-05 -3.56348719e-05
      -3.56348719e-05 -3.56348719e-05 -1.97497116e-06 -2.12069745e-06
      -2.12069745e-06 3.83735915e-06 1.77416186e-05 1.77416186e-05
      4.13823727e-06 -2.95216632e-05 3.69743407e-06 -4.38626103e-06
      -3.04726927e-05 -2.28107201e-05 -2.28107201e-05 -3.03269680e-05 0.
      7.64532433e-06 -5.59482905e-05 5.34436640e-06 9.24018150e-06
      9.24018150e-06 -2.59987628e-05 -7.67307597e-07 -1.43889592e-05
      2.21630689e-05 1.24113940e-05 -5.86370106e-07 -7.32096510e-07
      3.29278046e-05 2.46414438e-05 2.46414438e-05 1.78019091e-05
      1.11835307e-05 2.75535840e-05 1.99082606e-05 1.99082606e-05
      2.14873071e-05 4.36803748e-05 2.73103215e-05 3.39286998e-05
      1.22388974e-06 -3.04726927e-05 -2.28107201e-05 7.64532433e-06
      1.20558516e-05 -3.22459891e-06 2.94802121e-05 2.28618337e-05
      2.12827872e-05 -1.28203674e-05 -2.91904216e-05 -1.38044297e-05
      3.30180483e-05 3.96364267e-05 3.94907001e-05 3.94907001e-05
      6.48642381e-05 -2.48162323e-05 1.83161956e-05 1.78019091e-05
      1.78019091e-05 1.11835307e-05 2.75535840e-05 1.99082606e-05
      1.99082606e-05 2.10465041e-05 2.14897591e-05 3.39286998e-05
      1.22388974e-06 1.22388974e-06 -3.04726927e-05 2.21934097e-05
      1.36244435e-05 2.94802121e-05 2.79011656e-05 2.08395322e-05
      5.18534534e-06 -2.84745547e-05 -3.76504613e-05 -3.43175307e-05
      -1.21269131e-05 2.75648363e-05 -1.34263337e-05 1.29532273e-05
      2.16733551e-05 5.53332538e-05 2.21141581e-05 -2.66776042e-05
      -4.02992555e-05 -7.80358823e-06 -2.50934336e-05 -1.61105290e-05
      -2.04229200e-05 1.27961766e-05 1.94145541e-05 2.72574198e-05
      1.22388974e-06 1.22388974e-06 2.12804080e-05 3.58150610e-05
      2.84154521e-05 6.11202631e-05 4.42083583e-05 -1.22388974e-06
      -1.22388974e-06 1.23794907e-05 -4.19628559e-05 -3.44466062e-05
      -1.99179631e-05 -2.61820205e-05 -2.58888922e-05 -2.92218247e-05
      -2.25505428e-05 -2.36494793e-06 9.68811219e-06 1.07317073e-05
      2.05306860e-05 -3.84672785e-05 -2.30705846e-05 -2.30705846e-05
      -5.79981997e-06 1.27961766e-05 1.94145541e-05 3.04450077e-06
      1.22388974e-06 3.48837893e-05 4.25457620e-05 3.58150610e-05
      2.84154521e-05 4.57281203e-05 4.52848653e-05 1.20657696e-05
      -1.22388974e-06 1.57124232e-05 -1.44083588e-05 -5.64068023e-06
      3.59640726e-05 2.59333119e-05 6.85015357e-06 5.28529245e-06
      -9.16305453e-06 -9.16305453e-06 -3.36603189e-05 -5.97457365e-05
      -4.92717227e-05 -4.15310751e-05 -4.94318738e-05 -2.38930224e-05
      -2.38930224e-05 5.04935997e-06 1.30053195e-05 -1.78568871e-06
      3.48837893e-05 3.48837893e-05 4.25457620e-05 5.85442540e-05
      1.46023567e-05 4.57281203e-05 4.52848653e-05 4.52848653e-05
      2.56691510e-05 2.98470495e-05 -5.93309633e-05 6.40602320e-06
      -2.10115923e-05 -2.23222232e-05 -2.28844438e-05 9.18530759e-07
      -2.27847067e-05 -3.55426164e-05 -3.39275393e-05 -5.07628283e-05
      -6.13247830e-05 -4.15310751e-05 -1.18185270e-07 -1.72563741e-05
      -2.22280705e-05 1.16677384e-05 1.16677384e-05 3.18742095e-05
      3.48837893e-05 4.25457620e-05 4.74991903e-05 8.27090189e-05
      6.71674934e-05 7.76816887e-05 5.06401011e-05 6.22211810e-05
      6.22211810e-05 2.98470495e-05 -3.73591356e-05 -9.54148054e-05
      -9.93100839e-05 -7.28307205e-05 -8.38127889e-05 -1.10192348e-04
      -1.38544565e-04 -8.35912069e-05 -9.21601677e-05 -9.21601677e-05
      -1.25640348e-04 -5.74794103e-05 -8.40454413e-06 3.14329300e-05
      -1.09017139e-06 1.99180649e-05 1.99180649e-05 6.11793657e-05
      4.25457620e-05 5.08321209e-05 3.99829405e-05 2.57333541e-05
      1.06724394e-04 1.11925365e-04 8.10146157e-05 6.13989032e-05
      3.69615846e-05 -9.98797259e-06 -5.73973848e-05 -9.67523883e-05
      -1.48721811e-04 -1.63900040e-04 -1.94900073e-04 -1.62757482e-04
      -1.62757482e-04 -1.62757482e-04 -1.05781823e-04 -1.33285663e-04
      -1.33285663e-04 -5.74794103e-05 -8.40454413e-06 2.44463604e-06
      2.42454407e-05 2.68684362e-05 5.25255346e-05 4.44418401e-05
      7.65654768e-05 5.08321209e-05 2.63795609e-05 2.57333541e-05
      9.90790722e-05 1.56383787e-04 9.56425793e-05 8.09682097e-05
      2.19655903e-05 4.63228498e-05 -4.21721182e-07 -1.07747299e-04
      -1.63900040e-04 -2.03882984e-04 -1.70663887e-04 -1.55062604e-04
      -1.22920013e-04 -1.62757482e-04 -2.03882984e-04 -1.46907318e-04
      -1.33285663e-04 -1.33285663e-04 -3.54461299e-05 1.60480176e-05
      1.60480176e-05 5.29895296e-05 7.44335484e-05 4.44418401e-05
      5.05509015e-05 6.57162964e-05 2.63795609e-05 2.57333541e-05
      4.21034092e-05 8.18412009e-05 1.03953142e-04 4.30015571e-05
      6.73588147e-05 3.86608772e-05 -4.21034092e-05 -4.54363399e-05
      -1.36638992e-04 -1.30385612e-04 -1.30385612e-04 -1.30385612e-04
      -1.30385612e-04 -1.30385612e-04 -1.30385612e-04 -1.30385612e-04
      -1.06629042e-04 -9.96257659e-05 -5.21129150e-05 -2.63795609e-05
      2.10359649e-05 9.18394289e-05 1.23271064e-04 9.02060856e-05
      3.97017211e-05 3.20563959e-05 0. 2.57333541e-05 1.77222762e-06
      1.81942542e-05 7.31218461e-05 9.18394289e-05 5.96968421e-05
      8.98290546e-06 -4.54363399e-05 -1.22172441e-05 -2.57634056e-05
      -1.16069001e-04 -1.21692021e-04 -1.21692021e-04 -9.13175027e-05
      -8.36555337e-05 -9.13175027e-05 -1.21692021e-04 -1.56933427e-04
      -9.99577605e-05 -2.60983397e-05 -1.73966564e-05 4.11254950e-05
      6.14649107e-05 6.91268870e-05 5.16317523e-05 4.46297890e-05
      1.94270597e-05 -3.36599005e-05 -7.92654464e-06 -1.45105560e-05
      -5.12079396e-06 -1.85457957e-05 5.14104831e-05 4.24275786e-05
      2.71050543e-20 -1.22172441e-05 -1.31151137e-05 1.14460436e-05
      -2.12587674e-05 -9.18394289e-05 -6.14649107e-05 -6.14649107e-05
      -6.14649107e-05 -6.14649107e-05 -6.91268870e-05 -6.91268870e-05
      -3.41601335e-05 -3.30487092e-05 -7.64532433e-06 2.71050543e-20
      8.98290546e-06 4.94118540e-05 4.19076532e-05 1.14106942e-05
      -8.97480368e-06 -8.36980053e-06 -7.92654464e-06 -3.87234759e-05
      -1.27827680e-05 -2.68321546e-05 -3.58150610e-05 4.24275786e-05
      2.71050543e-20 -1.31151137e-05 1.10978044e-05 1.91080180e-05
      2.73943770e-05 -5.31043452e-06 -4.11254950e-05 -4.11254950e-05
      -4.11254950e-05 -4.11254950e-05 -4.87874677e-05 -3.30891453e-05
      -3.41601335e-05 1.90563878e-05 -7.64532433e-06 2.71050543e-20
      2.71050543e-20 5.79569996e-06 2.98545947e-05 -1.71767188e-05
      4.64684854e-06 -7.24476365e-07 -2.83632762e-05 -8.73818426e-05
      -2.68321546e-05 -3.58150610e-05 -3.58150610e-05 -3.58150610e-05
      3.03745182e-05 -1.15360681e-05 6.66576113e-07 2.07230951e-05
      6.18485865e-05 4.11968394e-05 4.11968394e-05 7.64532433e-06 0.
      -6.67128143e-06 -1.10003230e-05 -6.58773797e-06 -6.58773797e-06
      -3.79192752e-05 1.11298441e-05 2.71050543e-20 -1.08491804e-05
      5.09915299e-06 -2.48742817e-05 -7.49757455e-05 -8.00608759e-05
      -3.11607291e-05 -5.10002756e-05 -5.57778258e-05 -2.91437791e-05
      -2.91437791e-05 -2.91437791e-05 -3.58150610e-05 -4.66642414e-05
      1.06731559e-05 6.66576113e-07 2.81886914e-05 6.18485865e-05
      2.91437791e-05 4.11968394e-05 4.11968394e-05 -2.94004767e-05
      -2.60675442e-05 1.77646289e-05 4.21830810e-05 1.14353224e-05
      -5.18807901e-05 -8.53723213e-06 -1.08491804e-05 5.09915299e-06
      -8.50422748e-06 -5.12538427e-05 -8.39586573e-05 -2.84669914e-05
      -1.75390796e-05 -3.81670034e-05 -4.27801433e-06 1.06936959e-05
      -2.91437791e-05 -2.91437791e-05 -2.91437791e-05 -4.33313071e-05
      -6.47574416e-05 2.60652960e-05 -1.16487845e-05 -1.16487845e-05
      -1.16487845e-05 -3.44022847e-05 -2.07989033e-05 -2.84608777e-05
      -1.55099497e-05 1.16569054e-05 3.80364654e-05 3.80364654e-05
      1.42668041e-05 -1.69545838e-05 -3.18720595e-06 5.09915299e-06
      -3.48837893e-05 -5.12538427e-05 -3.74498959e-05 -3.78999812e-06
      2.73835249e-05 -1.59763877e-05 -2.69896850e-06 2.84267971e-05
